svm_type c_svc
kernel_type linear
nr_class 2
total_sv 1
rho -0.0493933
label 0 1
probA -3.24719
probB 0.00454994
nr_sv 1 0
SV
1 1:-0.0025014021 2:0.0007866607 3:-0.011279514 4:-0.0052767531 5:0.0043805651 6:0.013481956 7:-0.012951863 8:0.0018786635 9:0.013865099 10:-0.0061617042 11:0.0058017923 12:-0.0073328761 13:0.00053070688 14:0.0055629175 15:0.0016567896 16:-0.0019342661 17:0.0050374461 18:-0.00047998494 19:0.0049136286 20:-0.0013466098 21:-0.0025196773 22:-0.013427442 23:-0.006644396 24:0.0010254593 25:0.002341979 26:0.00042282852 27:-0.0031745206 28:-0.011298497 29:0.0028301658 30:-0.0014017006 31:-0.0019190732 32:-0.0047630353 33:0.0042750287 34:0.013654784 35:0.0052047011 36:-0.017332964 37:-0.0092169636 38:-0.0033249008 39:-0.0022317114 40:0.0061107845 41:-0.0061440414 42:-0.0076425734 43:-0.010305778 44:-0.011546603 45:-0.010910193 46:-0.0051014958 47:0.0046823041 48:0.00011313452 49:-0.001827633 50:0.0012870301 51:0.0046751978 52:-0.0014656901 53:-0.0043970443 54:-0.0073819185 55:-0.0047754566 56:-0.004099192 57:0.0067530378 58:0.0056393445 59:9.3730867e-005 60:0.0013911779 61:-0.019787917 62:0.0014979573 63:0.0013638308 64:-0.0092949089 65:-0.0095917192 66:-0.0016466683 67:-0.0026862135 68:0.0006514288 69:0.0096782349 70:0.0079082868 71:-0.0064024827 72:0.0054394509 73:0.010300517 74:-0.0098893975 75:-0.0031374592 76:-0.013081768 77:0.0070427163 78:0.0051599037 79:-0.0095501676 80:0.015371971 81:0.0035713241 82:0.00070042245 83:-0.0017252684 84:0.0032985345 85:0.0027760406 86:0.0074478192 87:0.0057909816 88:-0.0041893969 89:-0.0083594635 90:-0.0017302424 91:-0.0094213415 92:0.0018012646 93:-0.00091003831 94:-0.0015004328 95:0.00223166 96:-0.0060459844 97:-0.0046790307 98:-0.0015610076 99:-0.0030870514 100:-0.0020052063 101:0.0015507776 102:0.015138773 103:0.0052448567 104:-0.0041713039 105:0.0031365365 106:0.010715123 107:0.0097332168 108:-0.0020893065 109:-0.0017827241 110:0.0014139502 111:0.0087856919 112:0.0052822431 113:-0.0013714375 114:-0.0022821933 115:-0.0092083489 116:-0.003877845 117:-0.0016911125 118:0.0036667597 119:0.014691434 120:-0.0036237695 121:-0.0016818886 122:0.013328615 123:0.0065094616 124:0.0011904178 125:0.0037248483 126:-0.0074602981 127:0.0091623185 128:-0.0031487517 129:-0.003182027 130:-0.01004087 131:-0.0035883325 132:-0.0016878429 133:-0.0036619278 134:0.021272214 135:0.0012673075 136:0.0044142127 137:-0.0063686927 138:-0.00076720291 139:0.0015715484 140:-0.0034509832 141:0.0052530338 142:0.0015415899 143:0.00080731336 144:-0.0065877526 145:-0.0049606007 146:-0.0075810897 147:0.0039099573 148:-0.00023411396 149:0.0022026492 150:0.0040535719 151:0.00028541054 152:0.0010841709 153:-0.005916552 154:0.007045523 155:0.0041579948 156:-0.0033967754 157:-0.0049049858 158:-0.001943218 159:-0.0012103527 160:-0.0044026482 161:0.0013812297 162:0.0053443575 163:0.007987568 164:0.0071989204 165:-0.0086776301 166:-0.0049396198 167:0.0057648115 168:0.0087482135 169:-0.0029583208 170:0.0041107014 171:0.00068023384 172:0.0040565526 173:-0.0046554089 174:0.011459167 175:-0.0068594351 176:-0.0026503896 177:-0.010773124 178:-0.0110445 179:0.0081546968 180:-0.0040646891 181:-0.00092579548 182:0.0041003695 183:4.6294127e-005 184:-0.005013697 185:-0.00071109389 186:0.0041684101 187:0.017143728 188:-0.0028023988 189:0.0033744676 190:-0.000487717 191:0.0041647008 192:-0.0089721911 193:-0.005765546 194:0.0033787993 195:0.0051105494 196:0.0065363588 197:-0.0037652667 198:-0.0048667043 199:0.0013674102 200:-0.007357639 201:-0.008926406 202:0.0034627765 203:0.01287001 204:7.306335e-005 205:0.0046772464 206:-0.0040884039 207:-0.0067732653 208:0.010000248 209:0.017782953 210:-0.015517659 211:0.012109528 212:0.0063543427 213:-0.0021545497 214:0.0084867476 215:0.0021106552 216:-0.0079330666 217:0.012326012 218:-0.00038745332 219:-0.0050099396 220:-0.013503042 221:0.0065179037 222:0.0010286043 223:-0.0034851121 224:0.00080289887 225:-0.0088422239 226:-0.0037256881 227:-0.0001342958 228:0.0057517974 229:0.0027656553 230:-0.00046729929 231:0.0070413262 232:-0.015087019 233:0.0078289261 234:-0.013337314 235:0.005014604 236:0.0014442828 237:-0.00034379821 238:-0.008033853 239:0.0062446118 240:0.0048830544 241:-0.00093908527 242:-0.013681761 243:0.0051374008 244:-0.0043466749 245:-0.0084646068 246:0.0050059565 247:-0.0068625233 248:-0.0022180116 249:-0.00031909617 250:-0.0044585204 251:0.016435589 252:-3.7042823e-005 253:0.003399222 254:-0.009028457 255:0.0023549377 256:0.0065170235 257:0.0018670671 258:-0.0046736133 259:0.0053877877 260:-0.017885572 261:0.0007369272 262:0.0026532646 263:0.0032613804 264:0.0025734287 265:-0.0032998418 266:-0.0015213292 267:0.0040680077 268:-0.00488121 269:-0.0086235326 270:0.018665822 271:0.00060518829 272:0.0034908041 273:0.013112126 274:-0.0055637792 275:0.0041120506 276:0.0031759886 277:0.014752582 278:-0.0017186346 279:0.0025665724 280:0.010418644 281:0.0056473088 282:-0.0056811534 283:-0.017997883 284:-0.014848666 285:-0.0075195125 286:0.0051969663 287:-0.0029198223 288:-0.0051370498 289:0.0093642862 290:0.0032723054 291:-0.0054226997 292:-0.01243206 293:-0.014024548 294:0.0012564957 295:-0.00055451519 296:-0.0077411644 297:-0.00090320685 298:0.0012847236 299:-0.0049314378 300:-0.0082347524 301:-0.0040531282 302:-0.0013615771 303:-0.0037874929 304:-0.0053365424 305:0.0063863231 306:0.0011435848 307:0.0043210858 308:0.00087887415 309:0.0016029144 310:-0.0041834127 311:-0.0003517634 312:0.0042953323 313:0.0017239533 314:0.0046582808 315:0.0023838647 316:-0.0055297495 317:-0.0097529985 318:0.00024488259 319:0.0043604611 320:0.0033443837 321:-0.0071512152 322:0.0029544513 323:-0.0051165925 324:-0.0058757012 325:-0.00014451965 326:-0.010879668 327:0.0071990183 328:0.0059120581 329:-0.0063711591 330:0.0043890478 331:-0.0039920686 332:-0.00063276791 333:0.010360075 334:0.012791855 335:0.0011893186 336:0.0088166994 337:-0.0069870827 338:-0.0022921338 339:-0.0011929194 340:-0.00044720167 341:-0.0027891283 342:0.0041448919 343:-0.0055700088 344:0.011163532 345:-0.003373865 346:-0.0060939877 347:-0.0082473069 348:0.014914219 349:-0.0034214282 350:0.0038349318 351:0.012301002 352:-0.00026250322 353:-0.00023534347 354:0.0013326892 355:0.0041009283 356:-0.0049224314 357:-0.010634003 358:-0.0025970442 359:0.0037827425 360:-0.0024158945 361:0.0050001774 362:-0.0040159298 363:-0.0087802346 364:0.0066155423 365:0.00028318197 366:0.0031592652 367:0.0014027297 368:0.0019921765 369:0.0045437769 370:-0.0088553301 371:0.004264455 372:-0.0075282844 373:-0.0058494195 374:-0.0070194335 375:0.011949809 376:-0.0081913765 377:-0.010559739 378:-0.0018334343 379:0.00069696625 380:-0.00092875699 381:0.0053833728 382:-0.0080840362 383:0.0051758845 384:-0.0035750371 385:-0.0032547654 386:-0.0073036029 387:0.0092330566 388:0.00071590483 389:-0.0053838392 390:0.00051241688 391:-0.0030970803 392:-0.0029548732 393:-0.0013472294 394:0.0066318585 395:0.010883547 396:0.0010804377 397:-0.0014318936 398:0.0020966183 399:0.0067558065 400:-0.00061324354 401:-0.00033676073 402:-0.0066357403 403:-0.0069224627 404:-0.0043312631 405:0.0034897161 406:-0.006480059 407:0.012569939 408:-0.008112037 409:0.018130012 410:-0.0044350605 411:0.00024687177 412:-0.0036231238 413:-0.010380094 414:0.0075425039 415:-0.0030458887 416:0.0014974391 417:0.012528691 418:-0.0054412024 419:-0.0061905465 420:0.0011108895 421:-0.00054948627 422:-0.0033026741 423:0.0015354244 424:-0.013611102 425:0.0080040559 426:0.00061687371 427:-0.0041845158 428:-0.0066738235 429:-0.0029716314 430:0.0033829284 431:-0.0033177715 432:-0.00086243251 433:0.005884056 434:0.00082042469 435:-0.0081228039 436:0.0018576222 437:-0.0077902998 438:-0.0065533654 439:0.0022343374 440:-0.008375058 441:0.0012689818 442:-0.0012711844 443:0.0014293584 444:-0.0093244748 445:0.0020592426 446:-0.0059932663 447:-0.0062026029 448:0.0054895528 449:0.002727751 450:0.0080792087 451:0.0079813888 452:0.00025401351 453:0.003080883 454:0.012751558 455:0.0072956875 456:-0.0077779598 457:-0.0028657778 458:0.0017802147 459:0.0084839483 460:-0.0049048219 461:-0.0066873445 462:0.003742512 463:-0.0010094961 464:-0.0033843024 465:-0.0032673989 466:0.0052381658 467:-0.0027726861 468:0.0011319399 469:0.00021512325 470:0.0019096581 471:-0.0037303321 472:0.00050618349 473:0.0055903076 474:-0.0059398827 475:0.0056938474 476:0.0015145583 477:-0.0051543602 478:-0.0039969384 479:-0.0046540198 480:-0.0021848226 481:0.0048412321 482:0.0020988753 483:-0.0097516122 484:-0.012696146 485:-0.0024741645 486:0.0022890325 487:-0.0048696843 488:-0.00473736 489:0.013558977 490:0.0041710955 491:-0.017941266 492:-0.00098457973 493:0.00073766164 494:-0.0046817396 495:0.0030250647 496:0.00070921252 497:0.0030281392 498:-0.0039515051 499:-0.0023494688 500:-0.0032376474 501:-0.0044999039 502:0.019715097 503:0.0034961839 504:0.0017725047 505:-0.0053581066 506:-0.0054676352 507:0.00026958862 508:-0.011708579 509:0.0063130822 510:0.0086470956 511:0.0078902741 512:-0.0051326164 513:0.0036912769 514:-0.0072994948 515:-0.0013410525 516:-0.0099591106 517:-0.0091202483 518:-0.011010479 519:0.0066728387 520:0.0079615937 521:-0.0024263217 522:0.00091608195 523:0.0076686334 524:0.00086352693 525:0.011528063 526:0.0048900611 527:0.0027666891 528:0.019680833 529:0.0035660621 530:-0.0091089462 531:0.014654222 532:-0.0068611481 533:0.0053338766 534:0.0040177239 535:-0.00083619819 536:0.0013100607 537:0.0033968504 538:-0.012387533 539:0.0069971077 540:-0.0042069848 541:-0.0044890766 542:0.0058168577 543:0.0022174291 544:-2.2067373e-005 545:0.010326426 546:0.0066474599 547:0.004238524 548:0.0093868353 549:0.0039737323 550:0.0013936256 551:0.0053817293 552:0.010778157 553:0.0059806423 554:-0.003528638 555:-0.0063818522 556:-0.0075548095 557:-0.0072219928 558:-0.0029706066 559:-0.0018901158 560:-0.0099118427 561:-0.0040406919 562:-0.00045987566 563:-0.0068343484 564:-0.0040690333 565:-0.010161481 566:-0.0033792585 567:-0.0023183229 568:0.00027521589 569:0.0056970359 570:-0.0070626878 571:0.0075849904 572:3.1614122e-005 573:0.0035772657 574:0.0085927005 575:-0.0025701331 576:0.00097263305 577:-0.015335948 578:0.0042552441 579:-0.0081701472 580:0.00096321235 581:0.0023110954 582:0.0049781645 583:-0.0075521348 584:0.0041931298 585:-0.002629611 586:0.0043707899 587:0.0087369944 588:-0.013171108 589:-0.0098198003 590:-0.0072855162 591:-0.0026666017 592:0.0089409532 593:0.0023236064 594:0.0014588007 595:0.0054481763 596:0.0034237752 597:0.0017299545 598:-0.004262079 599:0.0059499598 600:-0.002293439 601:0.003931747 602:-0.0021333728 603:-0.0063120678 604:-0.006345852 605:0.002957842 606:-0.0047495637 607:-0.0094201441 608:-0.0069428847 609:0.0062943581 610:-0.0041829478 611:0.002196532 612:-0.0090528909 613:-0.0091495335 614:0.0030556041 615:-0.0034851464 616:0.0030148702 617:-0.024778307 618:-0.0068256136 619:-0.0020568526 620:0.0031691737 621:-0.0051648401 622:0.00091001072 623:0.0048348302 624:-0.012943611 625:0.0046397844 626:0.00068980296 627:0.0035244171 628:0.0063764445 629:-0.0011982848 630:0.0001478067 631:0.0019922039 632:-0.01475978 633:-0.0080481983 634:-0.011918876 635:-0.012215466 636:0.01192329 637:0.0015493015 638:0.0076894354 639:-0.0012935202 640:0.006512457 641:-0.00013129253 642:0.0006297248 643:0.0037803498 644:-0.0033396731 645:0.0029500256 646:-0.006890744 647:-0.0099659207 648:0.0038747395 649:0.0080792382 650:-0.00028599198 651:0.004141766 652:0.0011883081 653:-0.0014870487 654:-0.01674165 655:0.0029688819 656:0.0056261456 657:-0.0015952487 658:0.00019857175 659:-0.0010323317 660:0.0037919893 661:-0.0038296467 662:0.0048825633 663:-0.0010043291 664:-0.0096889502 665:0.0009928823 666:0.0031418819 667:-0.0075573139 668:-0.0092057063 669:-0.0012086657 670:0.0037328688 671:-0.0050030168 672:0.0019066232 673:0.01269801 674:-0.0069191896 675:-0.011361268 676:-0.0088107705 677:-0.0037988499 678:-0.0024522528 679:0.00073672526 680:0.0038881148 681:0.0012453793 682:0.0035437056 683:-0.0013691227 684:-0.0023027745 685:-0.0055147267 686:-0.0028370174 687:-0.00087788209 688:-0.0053737351 689:0.00040738149 690:0.0040005949 691:0.0046114449 692:-0.0074110651 693:0.003755625 694:0.0036695234 695:-0.0022338814 696:0.00059300557 697:0.00085131217 698:-0.0017979009 699:0.0087932542 700:-0.00048853726 701:0.0031326848 702:0.011696494 703:-0.00057598361 704:-0.0085386095 705:0.0059878962 706:0.0016536494 707:0.00016750172 708:-0.00029991442 709:0.014647491 710:-0.0025657698 711:0.00025105356 712:0.0064080688 713:-0.0066935837 714:0.0032871078 715:0.0063715701 716:0.0018962421 717:-0.0060451058 718:0.004758024 719:-0.0010481302 720:0.0028245736 721:-0.010543573 722:-0.0040544151 723:0.00072749171 724:-0.0045917742 725:0.00083072151 726:-0.005550134 727:0.0044271227 728:-0.0053575979 729:0.0029016687 730:0.0055562829 731:0.013460411 732:-0.0023939644 733:-0.0038025256 734:-0.00013297899 735:0.0062235497 736:0.0055469765 737:0.0011340565 738:-0.010619408 739:0.012994598 740:0.0041642965 741:0.0083975006 742:-0.0079854296 743:-0.0017699636 744:0.0051977331 745:0.0041653021 746:-0.0040901511 747:0.0024380089 748:-0.0016450925 749:0.0079313941 750:0.0025860932 751:0.0031751946 752:-0.0055651298 753:0.0049513985 754:0.0066688685 755:-0.0012246891 756:0.0035648527 757:-0.0049960397 758:-0.0064382694 759:-0.00074287963 760:0.0030200824 761:-0.0018225948 762:0.016061218 763:0.0051855685 764:0.0028563352 765:0.0053405089 766:0.004988774 767:0.0025859394 768:-0.004179137 769:0.005019429 770:-0.0056112344 771:0.00028790561 772:0.0039180881 773:-0.0027584048 774:0.0078782275 775:-0.007246266 776:-0.00097495822 777:-0.00089601992 778:-0.011768728 779:0.0088846296 780:0.0078583587 781:-0.0021548829 782:-0.0026472988 783:0.010574046 784:-0.013160922 785:0.012308538 786:0.0035132511 787:-0.00024368696 788:0.006057223 789:-0.0025419101 790:-0.0050484588 791:-0.014198482 792:-0.022915996 793:0.0018802249 794:-0.0033877745 795:0.0051808637 796:-0.0048485259 797:-0.0052435542 798:-0.0036214269 799:0.0089722013 800:-0.0010412334 801:0.00028030881 802:0.0025074405 803:0.022641889 804:0.0060096175 805:0.0066962192 806:-0.017092807 807:-0.0025962403 808:0.0041927684 809:-0.0065312854 810:-0.0067048689 811:-0.0092899336 812:0.0082199066 813:-0.0061682202 814:0.0003813345 815:0.0013236266 816:0.0043193484 817:-0.00097532296 818:0.019492111 819:0.0028269301 820:-0.010270804 821:0.0032731246 822:0.0076776634 823:-0.0002914371 824:-0.0041780177 825:0.0016433343 826:0.0082138006 827:-0.0035087654 828:-0.0042481093 829:-0.0046571102 830:-0.004163232 831:2.8763735e-005 832:0.00073423234 833:-0.002327924 834:-0.0083286521 835:-0.005466633 836:-0.0056771599 837:-0.0044395922 838:-0.00064635155 839:-0.0031663688 840:0.0010918306 841:0.012800979 842:-0.0051345505 843:-0.0010489527 844:0.0061204457 845:0.00061966615 846:-0.0021801337 847:-0.012771866 848:0.0029135296 849:-0.00456819 850:0.0043528955 851:0.00058861649 852:-0.0030303073 853:0.00015121511 854:0.005490417 855:-0.0072630893 856:0.0073167834 857:0.009930772 858:0.004537187 859:-0.0057748072 860:0.0011699965 861:0.010239435 862:-0.0083982807 863:-0.0044352504 864:0.0093175373 865:0.01132062 866:0.0055925603 867:-0.012495736 868:-0.0046884395 869:0.0096091948 870:-0.0039941095 871:0.0014712586 872:0.0044503153 873:0.0043377657 874:-0.00077451628 875:-0.018905823 876:-0.0014940271 877:0.0048050722 878:-0.0063759703 879:-0.0023742839 880:-0.0025132853 881:-0.0010882433 882:-0.0015606771 883:-0.00097674975 884:0.0078108824 885:0.0083877434 886:0.0098425997 887:0.012268564 888:0.0034654551 889:-0.0010473615 890:0.0055471077 891:0.0021599426 892:-0.0095653123 893:0.0068788176 894:0.006201936 895:0.0045291204 896:0.0014814963 897:0.010963665 898:-0.0048315268 899:0.0012326329 900:-0.0036299226 901:0.010385298 902:0.0041504952 903:0.0028900347 904:-0.00081849948 905:0.0023627417 906:-0.0020527871 907:0.001873261 908:-0.0059808504 909:-0.0094705677 910:0.0022452056 911:-0.00067318677 912:-0.005239728 913:0.0057494045 914:-0.0066294221 915:7.5814086e-005 916:0.0018888092 917:-0.013690117 918:-0.01576981 919:-0.0022683216 920:-0.0017048947 921:-0.0069279588 922:-0.0023705306 923:-0.0018097463 924:-0.012204798 925:-0.010843373 926:-0.0068885826 927:0.0030584027 928:-0.0063694901 929:0.005837897 930:-0.0031319358 931:-0.0097911948 932:0.0028711705 933:0.0024503347 934:-0.0055649446 935:0.005401298 936:-0.0019412141 937:-0.012458436 938:0.0047629095 939:-0.0011466554 940:-0.0018843326 941:0.0010471066 942:-0.010154754 943:-0.0019063171 944:0.0059693935 945:0.0078374119 946:0.0080584367 947:-0.002293318 948:-0.0012279942 949:0.00771784 950:0.0029794373 951:-0.0092619098 952:0.0025908725 953:0.00077473671 954:0.0053764542 955:0.013290985 956:-0.0053603776 957:-0.0096146452 958:0.0017060939 959:-0.0028390688 960:-0.013741088 961:0.0017008477 962:0.00065841938 963:-0.013091527 964:0.0016988712 965:-0.012459023 966:-0.0015608597 967:0.0014147669 968:0.0095466539 969:-0.0076804738 970:0.0069693888 971:-0.0018613063 972:0.00058851735 973:0.0018309232 974:-0.0011188335 975:0.0038991175 976:-0.0070863962 977:-0.0051043404 978:-0.0035283155 979:0.015167864 980:0.0091469725 981:-0.012852892 982:0.014058068 983:0.0039541822 984:-0.0044743691 985:-0.0028361591 986:-0.006408672 987:0.0005583947 988:0.0032133717 989:0.00090413483 990:0.0076564332 991:0.0025754623 992:6.3234802e-005 993:0.0052302615 994:0.0035907114 995:0.0046405676 996:0.0018473422 997:0.0047454284 998:0.0090084411 999:0.0045376053 1000:0.001275512 1001:-0.0004730367 1002:0.00019368657 1003:-0.00041787156 1004:0.0010632865 1005:0.0062769307 1006:-0.018810311 1007:0.0011236138 1008:-0.00084572391 1009:0.0022580195 1010:-0.012714219 1011:0.0012054779 1012:-0.0054011232 1013:0.0028353916 1014:-0.0028673267 1015:0.0024850234 1016:0.0011707436 1017:0.0056631967 1018:0.0067627864 1019:-0.0042271342 1020:0.01119275 1021:0.001816011 1022:0.0022518977 1023:-0.0015399231 1024:0.00059977948 1025:0.0013015032 1026:-0.0002188038 1027:0.0020655318 1028:-0.0065632203 1029:-0.0041642856 1030:-0.0052123986 1031:0.0027802001 1032:0.00011333096 1033:-0.0022693737 1034:0.0067577678 1035:-0.00045586303 1036:-0.011213907 1037:-0.0043123362 1038:0.0035724659 1039:0.0033323948 1040:0.0013467522 1041:0.0036143316 1042:0.0020121608 1043:0.0043331683 1044:-0.011503759 1045:-0.0040752845 1046:-0.0062453492 1047:-0.0031210642 1048:0.0054960883 1049:-0.0062764065 1050:0.0063052207 1051:0.0046549846 1052:0.004721066 1053:-0.0029087982 1054:0.0023680954 1055:-0.0046908915 1056:0.0041843497 1057:-0.0031784726 1058:-0.0065375192 1059:-0.0021899907 1060:-0.010153446 1061:-0.0065625389 1062:-0.013737696 1063:0.0022586019 1064:-0.0017479682 1065:0.0037452226 1066:0.0027212159 1067:0.0036487245 1068:0.00092860605 1069:0.0049082907 1070:-0.0023471808 1071:-0.0028818865 1072:0.0015900572 1073:-0.0031786042 1074:0.0035240996 1075:-0.0092737013 1076:-0.010938359 1077:0.018183194 1078:-0.0027040173 1079:-0.005661139 1080:-0.0031127973 1081:-0.0039326584 1082:-0.0012483763 1083:-0.011019757 1084:-0.0049281853 1085:0.0079004187 1086:0.0083770611 1087:0.0034321717 1088:-0.0010776101 1089:-0.0080912691 1090:0.0019402099 1091:0.012996571 1092:0.0061981344 1093:0.0022004586 1094:-0.0019066882 1095:0.00329389 1096:0.0014709478 1097:0.0010958836 1098:0.0050009497 1099:-0.0043364273 1100:0.0044187199 1101:-0.0016574561 1102:-0.0073995184 1103:0.00018629361 1104:-0.017237882 1105:0.0022352206 1106:-0.014621751 1107:0.0027490715 1108:-0.00098547025 1109:0.0032731723 1110:0.00093984549 1111:0.0064885614 1112:-0.0089940947 1113:0.0078465121 1114:0.0041815811 1115:0.0033467287 1116:0.0041019606 1117:-0.0094669669 1118:0.00089087424 1119:-0.0063854669 1120:0.00053026723 1121:-0.0033888039 1122:0.008696821 1123:-0.0052369252 1124:-0.013287977 1125:0.011747439 1126:-0.0060540312 1127:-0.0060995748 1128:0.01581271 1129:-0.0020169937 1130:0.0052038199 1131:-0.0044972815 1132:0.0038632725 1133:0.007230288 1134:-0.0016020182 1135:0.0087799041 1136:-0.0010781268 1137:-0.016545186 1138:0.012307313 1139:-0.0047772879 1140:-0.0010400299 1141:-0.0047811151 1142:-0.002583001 1143:0.0038249945 1144:-0.0075922924 1145:-0.00094035864 1146:0.0061530496 1147:-0.00033725765 1148:-0.0032181581 1149:0.0088514434 1150:0.0082531747 1151:-0.0048150419 1152:0.017359297 1153:-0.0020317386 1154:0.005154175 1155:-0.0036565953 1156:0.00017360828 1157:-0.011700889 1158:0.0014088744 1159:0.012665078 1160:-0.0060646786 1161:0.0063664236 1162:-0.0055032518 1163:-0.0046953103 1164:-0.007261712 1165:-0.01003449 1166:0.00070434645 1167:-0.0054589909 1168:0.0051341618 1169:0.0091335653 1170:0.010462205 1171:0.0079591642 1172:-0.0071472709 1173:-0.0018017054 1174:0.0058645108 1175:0.0099307521 1176:0.0085171645 1177:0.0029543131 1178:0.0088311293 1179:-0.0086861809 1180:0.0082027377 1181:0.0037126684 1182:-0.00097981388 1183:0.014218928 1184:-0.011191001 1185:0.0043418898 1186:-0.0040957006 1187:0.0083105029 1188:0.0096350059 1189:-0.019792434 1190:-0.00095992976 1191:-0.0042810341 1192:-0.0082702919 1193:-0.0032460972 1194:-0.0075598979 1195:0.0072560876 1196:-0.0051611716 1197:0.0026680455 1198:0.0052535284 1199:-0.0021036407 1200:-0.0018723411 1201:0.0052977678 1202:0.003301658 1203:0.0093228624 1204:0.005952284 1205:0.0038563444 1206:-0.0080628683 1207:-0.012098667 1208:-0.0027526527 1209:-0.00065510224 1210:-0.0029517662 1211:-0.0010325618 1212:0.0046581765 1213:-0.00086429809 1214:-0.00023574932 1215:-0.0062361927 1216:-0.00010795262 1217:0.0034684764 1218:0.00077295579 1219:-0.0047475746 1220:0.0072371234 1221:0.0026051174 1222:0.008518971 1223:-0.0015912602 1224:0.014258049 1225:0.0048137432 1226:0.0011039434 1227:-0.0061470953 1228:0.00051493402 1229:-0.010077114 1230:-0.018674798 1231:-0.010122409 1232:0.0053462324 1233:0.00021617541 1234:-0.0071702086 1235:0.0050886968 1236:-0.0011061804 1237:-0.020569763 1238:0.0054771348 1239:-0.0076971578 1240:0.0062841288 1241:-0.00078363618 1242:0.0040292566 1243:0.020410495 1244:-0.004785933 1245:-0.011216699 1246:0.0029597091 1247:0.017645965 1248:0.0015268523 1249:0.00082393338 1250:0.0019764089 1251:-0.0015444907 1252:-0.0083334979 1253:0.0032068886 1254:0.011410994 1255:-0.0025581925 1256:0.013088518 1257:0.00013281492 1258:0.0028630511 1259:0.0020509229 1260:-0.0033829571 1261:-0.0041462288 1262:-0.008951567 1263:-0.0068319394 1264:0.0035362497 1265:0.0045106804 1266:0.0014418315 1267:0.00022539156 1268:0.0074389919 1269:-0.00090692285 1270:-0.0048759344 1271:-0.0065974745 1272:0.0078760315 1273:0.0051315517 1274:0.0055258433 1275:-0.00035871696 1276:-0.0031778374 1277:0.014969281 1278:-0.006594845 1279:0.017843196 1280:-0.0089404068 1281:0.00046250104 1282:0.010860014 1283:-0.001481669 1284:0.0005572664 1285:0.0011871576 1286:-0.0040357122 1287:0.0055772194 1288:-0.0013645953 1289:0.0029387899 1290:0.010807886 1291:-0.0042617099 1292:0.0015128014 1293:0.0051608913 1294:-0.013299427 1295:0.007077978 1296:0.0061928793 1297:-0.0027478859 1298:0.0058783144 1299:0.0030452689 1300:0.013640451 1301:-5.7938237e-005 1302:-0.0032499437 1303:0.0018177688 1304:-0.020448345 1305:0.016326142 1306:0.0026702011 1307:0.00078652805 1308:-0.0044559437 1309:-0.0011754071 1310:0.010104888 1311:0.0051845 1312:-0.011430229 1313:0.0059637146 1314:-0.0021277601 1315:0.00098360717 1316:0.0062593071 1317:-0.01449 1318:0.0049508356 1319:-0.0076895514 1320:0.0017069881 1321:0.0045054016 1322:-0.001569245 1323:0.0034460521 1324:-0.010642385 1325:0.00070214056 1326:-0.0078211826 1327:-0.0091621195 1328:0.010988005 1329:-0.0078631493 1330:-0.0064523999 1331:0.0021685282 1332:-0.0080187401 1333:-0.0079996447 1334:0.0051505602 1335:0.0059163821 1336:-0.0016453161 1337:-0.0056485946 1338:-0.010807264 1339:-0.0048685896 1340:-0.0038381843 1341:-0.0046318355 1342:-0.0098826061 1343:0.0011227297 1344:-0.01556933 1345:-0.0041984116 1346:0.011535174 1347:0.012523075 1348:0.003895545 1349:-0.0010128314 1350:0.0022642762 1351:0.016821463 1352:-0.0036198597 1353:-0.0097678185 1354:0.0073727173 1355:0.00029417935 1356:0.0014971042 1357:0.004927966 1358:0.0066094086 1359:0.0046670246 1360:-0.0029215491 1361:0.004987198 1362:0.0047387506 1363:-0.016561684 1364:-0.0063772965 1365:-0.016963136 1366:-0.0028581988 1367:-0.0051024279 1368:0.0084919182 1369:0.01657247 1370:-0.00010185712 1371:0.0069723387 1372:-0.017813896 1373:-0.004332468 1374:0.0068706192 1375:-0.00050420276 1376:0.00021993316 1377:-0.0014987081 1378:-0.0085495395 1379:-0.013051411 1380:0.0053882479 1381:-0.0014309857 1382:-0.005559536 1383:-0.0017149566 1384:0.0075402857 1385:0.0028712328 1386:-0.013654361 1387:0.0078656896 1388:-0.00669803 1389:-0.0089988446 1390:0.006386901 1391:0.005686739 1392:-0.0025209624 1393:0.0085795973 1394:-0.0075210805 1395:0.0060294061 1396:0.002902764 1397:-0.0089099018 1398:-0.00026036589 1399:0.005699693 1400:-0.00046390091 1401:-0.00084942849 1402:0.0017230229 1403:0.0028273763 1404:0.0099984987 1405:0.00012755668 1406:-0.0044209558 1407:-0.0055162889 1408:0.00016260131 1409:-0.0041447437 1410:-0.0047556572 1411:-0.0058970199 1412:-0.0095995144 1413:-0.0002116175 1414:-0.0066906112 1415:0.00021384058 1416:-0.007371405 1417:0.0036327104 1418:0.018945692 1419:-0.0091766016 1420:-0.0086912801 1421:0.0089603794 1422:0.013091823 1423:0.003618016 1424:-0.0017893776 1425:0.0037579701 1426:0.0017955761 1427:-0.00093595166 1428:-0.0047452413 1429:-0.0064436898 1430:-0.0040274937 1431:-0.015610551 1432:0.002414992 1433:-0.013782089 1434:-0.0042602208 1435:-0.023567256 1436:-0.0011538654 1437:-0.0045018545 1438:-0.010230656 1439:0.0027569221 1440:-0.0069418647 1441:0.0019713411 1442:0.0025762197 1443:0.0039825219 1444:0.0019387659 1445:0.002825195 1446:-0.0054951861 1447:-0.023542328 1448:0.0085548937 1449:0.014422453 1450:0.0078522585 1451:0.0041493296 1452:0.0034294897 1453:-0.0017865947 1454:0.0037352251 1455:0.0011577118 1456:-0.0022279188 1457:-0.0012796607 1458:-0.0092572182 1459:-0.0060185663 1460:0.0070983741 1461:0.00061956731 1462:-0.011215975 1463:-0.016749692 1464:0.0015266066 1465:0.0043824068 1466:-0.00025133684 1467:0.0027366794 1468:-0.0032754232 1469:0.010632551 1470:-0.0071281305 1471:8.8867206e-006 1472:-0.0069432576 1473:-0.0010966843 1474:0.0033942473 1475:-0.0056277163 1476:-0.0056260809 1477:0.00063554457 1478:-0.0098078562 1479:0.0066674422 1480:-0.0027099972 1481:0.011695995 1482:0.0068704307 1483:0.002536638 1484:-0.0029330667 1485:0.0086462598 1486:-0.00055653181 1487:0.0011994547 1488:0.0025296386 1489:-0.011606925 1490:-0.00093362595 1491:0.00040926441 1492:0.013311016 1493:0.0033666816 1494:-0.0079095856 1495:0.0064924915 1496:0.0048517148 1497:-0.0060911983 1498:-0.0080310815 1499:0.0029172517 1500:0.0084309743 1501:-0.006223977 1502:0.0018588751 1503:0.0039197678 1504:0.0004071465 1505:0.0073849467 1506:0.0042950629 1507:0.0040370718 1508:-0.01288968 1509:-0.0037425584 1510:-0.0051232926 1511:-0.0090493112 1512:0.0033441341 1513:-0.0080316249 1514:0.00039668322 1515:-0.0014008657 1516:0.0095638953 1517:-0.018849619 1518:0.010234554 1519:-0.00093329849 1520:-0.0025776061 1521:-0.012598717 1522:-0.008907852 1523:0.0006087522 1524:-4.4020096e-005 1525:-0.0018201044 1526:-0.0035668081 1527:-0.00027471506 1528:0.0054026615 1529:0.0055686835 1530:-0.0013155401 1531:-0.00019496239 1532:0.0035299453 1533:-0.0015855512 1534:-0.0041718931 1535:0.0051572946 1536:-0.0062626321 1537:-0.011988958 1538:-0.00020839114 1539:-0.0051030541 1540:0.0013466696 1541:0.0025449152 1542:-0.00046099279 1543:-0.0095730296 1544:0.0024773741 1545:0.014347777 1546:0.0091904691 1547:0.0044771552 1548:-0.0080084022 1549:0.0077226655 1550:-0.005562241 1551:0.0074709671 1552:-0.0042120032 1553:0.0075325805 1554:-0.0052343274 1555:0.0094391934 1556:0.0090517868 1557:0.0073587965 1558:-0.0036614991 1559:0.0023930242 1560:0.0058905293 1561:0.015712811 1562:0.00021840377 1563:-0.0067308272 1564:0.0017092189 1565:-0.010426158 1566:0.0084561817 1567:0.013858808 1568:0.0014297207 1569:0.0036290033 1570:-0.0098753861 1571:0.0058709062 1572:-0.00062628176 1573:-0.0006750912 1574:0.0056512357 1575:0.010513254 1576:0.0015921407 1577:-0.012930057 1578:0.00796813 1579:0.0058285633 1580:0.00037108196 1581:0.005032494 1582:-0.01309832 1583:-0.0057577075 1584:0.0055287834 1585:-0.0062559468 1586:-0.0039558571 1587:0.00084833107 1588:0.0084996467 1589:0.00031151464 1590:0.0060582278 1591:0.013168091 1592:-0.003182164 1593:0.010733864 1594:-0.00073264017 1595:0.0063410792 1596:0.0089457891 1597:-0.0015385431 1598:-0.004099746 1599:0.0046127436 1600:0.0048916488 1601:-0.0062454939 1602:0.0052836957 1603:0.0072943432 1604:-0.0077200735 1605:-0.0053168736 1606:-0.0077478234 1607:-0.01264913 1608:0.0015587585 1609:-0.0062614478 1610:-0.00088161854 1611:-0.00077243412 1612:0.0041265753 1613:0.0040483707 1614:-0.0027175556 1615:-0.0040535708 1616:-0.0094827387 1617:0.0080299719 1618:0.00031932612 1619:0.0017871968 1620:0.016737602 1621:0.0014324809 1622:0.0024977106 1623:-0.0028445321 1624:0.008159657 1625:-0.0023175053 1626:0.019083497 1627:-0.0044614196 1628:0.0030566776 1629:-0.0046470035 1630:-0.0056295296 1631:-0.0011794854 1632:-0.0025137903 1633:-0.005163454 1634:-0.0082417674 1635:-0.0084995286 1636:-0.019577596 1637:0.0040450377 1638:-0.016227887 1639:0.0039175054 1640:0.0091645004 1641:0.00016720671 1642:-0.0020574317 1643:0.0061461429 1644:0.00058376142 1645:0.0066313927 1646:0.005988936 1647:0.00383767 1648:-0.001865228 1649:-0.00069809664 1650:0.00063759642 1651:0.0012135202 1652:0.0057569199 1653:0.0013266533 1654:0.0013290687 1655:-0.0073018226 1656:0.011150418 1657:0.017023629 1658:0.0037663179 1659:0.0083307786 1660:-4.1898652e-005 1661:-0.010431799 1662:0.00094361801 1663:-0.0027079085 1664:-0.016714246 1665:-0.0045071111 1666:0.005785736 1667:-0.0017872268 1668:0.0064036002 1669:0.00065281609 1670:0.014096355 1671:0.0090196837 1672:-0.010671279 1673:0.00011471906 1674:-0.00042295466 1675:-0.00071295791 1676:-0.0077433962 1677:-0.0013989236 1678:-0.0030256803 1679:0.000769984 1680:-0.0017148521 1681:0.00071869971 1682:-0.00065741694 1683:-0.005708751 1684:-0.0021387464 1685:0.0058350402 1686:0.01518329 1687:-0.0013293451 1688:0.0045640571 1689:-0.0096017475 1690:-0.011090172 1691:0.011901014 1692:-0.013789127 1693:0.00074992584 1694:-0.002834454 1695:0.0020689748 1696:-0.0051462852 1697:0.0073831177 1698:0.012624277 1699:0.0013286569 1700:-0.0039889484 1701:0.007529644 1702:-0.012649189 1703:0.00018405066 1704:0.0023377862 1705:0.014219591 1706:0.00018546785 1707:0.00084599495 1708:-0.0083977418 1709:-0.010648895 1710:-0.0010716072 1711:-0.0036055774 1712:0.0019088155 1713:0.0019387933 1714:-0.0030203149 1715:0.00015657296 1716:0.0022478627 1717:-0.0064282343 1718:0.0011413345 1719:-0.0078242944 1720:-0.0052664047 1721:-0.00776836 1722:0.00011104718 1723:-0.0030973209 1724:-0.0041172038 1725:-0.00064221784 1726:0.0014583767 1727:-0.011814284 1728:-0.0031371183 1729:-0.003048076 1730:-0.0024867073 1731:-0.015285014 1732:-0.0012361555 1733:0.012721532 1734:0.0021496025 1735:0.0070056858 1736:0.0035401089 1737:-0.013758503 1738:0.0060678657 1739:0.002844046 1740:-0.0044254536 1741:0.0026697021 1742:0.021745647 1743:0.010533071 1744:0.00042830921 1745:0.0047640765 1746:-0.0053086849 1747:-0.0019482364 1748:-0.0059605218 1749:-0.0085593732 1750:-0.00033181639 1751:-0.0062136409 1752:0.0029902003 1753:0.0011693017 1754:0.010944388 1755:0.011569648 1756:-0.0050206481 1757:0.0019610628 1758:-0.0017466056 1759:0.005242555 1760:-0.00044577188 1761:0.0091446753 1762:0.0011899939 1763:-0.01099474 1764:0.0047585538 1765:-0.002919958 1766:0.0095129348 1767:-0.0040742626 1768:-0.00096839866 1769:-0.0017033469 1770:-0.00834153 1771:-0.0020401818 1772:-0.0041678318 1773:-0.00067791587 1774:-0.00043599413 1775:0.0094531503 1776:0.0083580286 1777:-0.0078265338 1778:-0.0013898796 1779:0.0044848307 1780:0.0022236002 1781:0.0066568435 1782:-0.0094120285 1783:0.0002065037 1784:-0.0046509233 1785:-0.0050005571 1786:-0.0085953975 1787:0.0087680837 1788:-0.015484103 1789:-0.0032615848 1790:0.0061871165 1791:0.0063759218 1792:-0.0012312969 1793:-0.011940666 1794:0.0011184073 1795:0.005344148 1796:-0.0028869031 1797:0.0031744448 1798:-0.004954664 1799:-0.0059242475 1800:0.0052417957 1801:0.0019404451 1802:0.0053606415 1803:0.0098798409 1804:-0.00012292028 1805:-0.0006827573 1806:-0.0085627295 1807:-0.0061187245 1808:-0.0043793577 1809:-0.001049881 1810:-0.015121635 1811:0.0042283383 1812:0.0060331214 1813:0.0095814971 1814:-0.0040025494 1815:-0.003919072 1816:-0.0051257398 1817:0.0045339336 1818:0.0058966794 1819:0.0019183747 1820:0.0018630841 1821:0.0036517065 1822:0.0045315844 1823:0.0015059564 1824:0.0029259465 1825:-0.0017015892 1826:0.0028553703 1827:0.0037263867 1828:0.0030019612 1829:-0.0043796718 1830:0.00078506546 1831:-0.000293284 1832:0.015909185 1833:-0.012338015 1834:-0.016201156 1835:0.0040260252 1836:0.0019225609 1837:-0.018484219 1838:0.0065888473 1839:0.0013871224 1840:-0.0026988479 1841:0.014273743 1842:0.006028899 1843:0.0033894108 1844:0.0018864311 1845:-0.00048519141 1846:-0.00055718913 1847:0.021663374 1848:0.0040227194 1849:0.0029012275 1850:0.014563528 1851:0.0010769551 1852:-0.0078461129 1853:0.00070910322 1854:-0.0067198912 1855:-0.00054951422 1856:0.0013220196 1857:0.0047359759 1858:-0.0079551175 1859:-0.0069701317 1860:-0.0028868827 1861:-0.0054484202 1862:-0.0059750149 1863:0.013488176 1864:0.0088298626 1865:-0.0015071783 1866:0.0037397463 1867:0.011996969 1868:0.0083993813 1869:0.0037682229 1870:-0.010351394 1871:0.0091593104 1872:-0.014860772 1873:-0.013757537 1874:0.0038953237 1875:0.012550909 1876:-0.015828876 1877:-0.0064596991 1878:-0.0087353793 1879:-0.0062505625 1880:-0.0030178657 1881:-0.012663682 1882:0.014885626 1883:0.0024728439 1884:0.0016037957 1885:0.00073284758 1886:0.0038273024 1887:0.0036243 1888:-0.0036888445 1889:0.00096967972 1890:-0.0044323804 1891:0.00041239478 1892:0.0053895322 1893:0.010823881 1894:-0.0063574439 1895:0.0017412905 1896:0.0031656031 1897:0.010281561 1898:-0.01274582 1899:-0.00072238635 1900:-0.0026449039 1901:0.0011733382 1902:-0.012589102 1903:-0.014771303 1904:-0.0028805818 1905:0.0008769855 1906:-0.0021783405 1907:-0.0013547606 1908:0.0036705952 1909:-0.0032101197 1910:0.00017540706 1911:0.0053245332 1912:0.0035856172 1913:0.0076933701 1914:-0.0020801988 1915:0.003137886 1916:0.0057001493 1917:-0.002116226 1918:-0.0015894891 1919:0.0013440351 1920:0.010265174 1921:-0.011997521 1922:0.0029338273 1923:-0.00060084971 1924:-0.0075147446 1925:-0.0041977197 1926:-0.0042609093 1927:-0.0033478248 1928:-1.627231e-005 1929:-0.0070670559 1930:0.0034554665 1931:-0.0025862709 1932:-0.0022224977 1933:0.0029380212 1934:0.018153679 1935:0.0017696193 1936:0.0022710249 1937:-0.016875066 1938:0.0043501462 1939:-0.001036026 1940:-0.0034861359 1941:-0.0059453749 1942:-0.0092472402 1943:0.0012643063 1944:-0.004613467 1945:0.006641081 1946:-0.0058736918 1947:0.0032000316 1948:-0.00084918971 1949:-0.00082947344 1950:0.0048772264 1951:-0.0071479917 1952:0.0054911065 1953:-0.0089137778 1954:-0.0054609535 1955:0.0090652136 1956:0.0016711455 1957:-0.0048025779 1958:-0.014353746 1959:-0.01341368 1960:0.010591494 1961:0.0074493706 1962:-0.014620717 1963:-0.015014883 1964:-0.00011876918 1965:0.0084815562 1966:-0.0017339739 1967:0.0017804764 1968:-0.0028538258 1969:-0.0037749878 1970:-0.010908994 1971:0.003174947 1972:-0.0066092274 1973:-0.00014575722 1974:-0.0037747112 1975:0.004111047 1976:0.0023278005 1977:-0.0025732685 1978:-0.0040085404 1979:0.0084894657 1980:-0.00034206216 1981:0.0035086838 1982:0.016915338 1983:-0.0022895731 1984:0.0037869159 1985:-0.0062668675 1986:-0.0085137851 1987:0.0065152005 1988:-0.0058540448 1989:-0.004487978 1990:0.0045238116 1991:0.0058135557 1992:-0.0025355853 1993:0.010099675 1994:-0.0040097176 1995:0.0054325648 1996:0.0039954676 1997:0.0069159502 1998:0.0054885849 1999:-0.010425549 2000:-0.0020023079 2001:-0.0011299278 2002:-0.0011300873 2003:-0.00038189684 2004:0.0042370614 2005:-0.0072658348 2006:-0.016072213 2007:0.0026023312 2008:0.0085878976 2009:0.00074402519 2010:-0.010792198 2011:-0.0031607829 2012:0.019652382 2013:0.00502141 2014:-0.0040970796 2015:0.0027828273 2016:-0.0040164023 2017:0.0033025681 2018:6.5155612e-005 2019:0.0031508626 2020:0.0021425571 2021:-0.0010485369 2022:-0.00014278624 2023:0.0055461562 2024:0.0077174111 2025:-0.0055059703 2026:0.0065495798 2027:0.0025853042 2028:0.0065411319 2029:-0.0033970568 2030:-0.00022698598 2031:-0.0050473007 2032:-0.0016348775 2033:-0.0090536432 2034:-0.012723569 2035:-0.0033528395 2036:0.013824555 2037:0.0011317649 2038:-0.0015061949 2039:-0.011995844 2040:0.010144858 2041:0.00049548898 2042:0.0016638463 2043:0.0077584497 2044:-0.0035326207 2045:0.0013085755 2046:-0.012577962 2047:0.0033457204 2048:0.0010934207 2049:-0.00094737554 2050:0.011642501 2051:-0.0011681448 2052:0.010197471 2053:0.0022370953 2054:-0.0031719597 2055:-0.0027981777 2056:0.0050826921 2057:0.013803378 2058:-0.0065698901 2059:-0.0092202311 2060:-0.009267388 2061:0.0083441983 2062:-0.0043021638 2063:-0.012621088 2064:0.0038031163 2065:0.0088253406 2066:0.0077713303 2067:0.015187721 2068:0.014936613 2069:0.014259474 2070:-0.00077929496 2071:0.0016219872 2072:-0.0099380934 2073:-0.0043592125 2074:0.0064496843 2075:0.0005994688 2076:0.0036246955 2077:0.013167336 2078:-0.0019914434 2079:-0.0095911964 2080:-0.012567477 2081:-0.00046968761 2082:0.0091255112 2083:-0.0052328979 2084:-0.0038500358 2085:0.0013546747 2086:0.0094890776 2087:8.9522755e-005 2088:-0.0057248888 2089:-0.014528582 2090:0.0072120062 2091:2.0632176e-005 2092:0.00764901 2093:-0.0056296175 2094:-0.014505416 2095:0.0056812175 2096:-0.0025471983 2097:0.0031962332 2098:-0.0044794968 2099:-0.0021659675 2100:-0.0063594118 2101:-0.0081415355 2102:-0.0038940432 2103:-0.0057858357 2104:-0.00017084709 2105:-0.004235264 2106:-0.0018525048 2107:0.0078584913 2108:0.005872065 2109:-0.0032103631 2110:-0.00044310139 2111:-0.0016316967 2112:0.0036070589 2113:0.0035630856 2114:-0.0022148858 2115:-0.0014368809 2116:-0.00033477373 2117:-0.017238298 2118:-0.0023066182 2119:-0.0076090288 2120:0.0019531873 2121:-0.020641905 2122:0.0046050016 2123:-0.0028206861 2124:0.0030195848 2125:0.0067444371 2126:-0.00020850803 2127:0.0072299207 2128:-0.00063126736 2129:0.0019865908 2130:0.0003769504 2131:0.0077770659 2132:-0.0033584713 2133:-0.00022819415 2134:-0.0010106457 2135:-0.00091401442 2136:-0.0027191653 2137:-0.0064496099 2138:0.0028468484 2139:0.0026901108 2140:-0.0021690566 2141:-0.011237687 2142:-0.0043101217 2143:-0.0022567214 2144:0.0043133664 2145:-0.0047426653 2146:0.0071084291 2147:0.0056279715 2148:0.010147823 2149:0.0015929982 2150:-0.0007396266 2151:-0.003999415 2152:0.00025578615 2153:0.00030515082 2154:0.0039025745 2155:0.0079726515 2156:-0.0081354931 2157:-0.013873272 2158:-0.0044497489 2159:0.0054425327 2160:-0.00093727552 2161:0.007804358 2162:-0.0017067224 2163:-0.005246302 2164:0.0039565983 2165:-0.0048690281 2166:-0.0049254044 2167:0.012553057 2168:0.00095272256 2169:-0.0031149754 2170:-0.0018545972 2171:0.0076901999 2172:-0.0124324 2173:-0.0012741474 2174:-0.00022058704 2175:0.0034969267 2176:-0.0071324423 2177:-0.0054375471 2178:-0.0011696611 2179:0.0023759997 2180:0.0068879873 2181:8.4347747e-005 2182:0.0094106743 2183:0.007545007 2184:0.0035577454 2185:-0.0071012728 2186:-0.016638682 2187:-0.012261615 2188:-7.1416512e-005 2189:-0.0086649797 2190:0.0098035038 2191:0.010048957 2192:-0.0014762232 2193:-0.0037265485 2194:0.0067570773 2195:0.0023181518 2196:0.0033140364 2197:0.0036673596 2198:0.0064304736 2199:0.0083875969 2200:0.0015170624 2201:-0.0045937557 2202:-0.0019689655 2203:-0.010555369 2204:0.0038556649 2205:-0.013737372 2206:-0.0073890718 2207:-0.007476971 2208:0.004647168 2209:-0.003130056 2210:0.0050613493 2211:0.00557016 2212:0.0016790171 2213:-0.00052641362 2214:-0.003605099 2215:0.0046001452 2216:-0.0032761827 2217:0.00094699879 2218:0.001737966 2219:-0.0064421367 2220:-0.012003429 2221:0.01164765 2222:-0.0020875237 2223:0.013106659 2224:0.0056810397 2225:0.0014579072 2226:0.0090921587 2227:0.0056006052 2228:0.0020855935 2229:-0.00068855364 2230:-0.011371281 2231:-0.0080924041 2232:-0.001537794 2233:-0.0074542689 2234:-0.0211257 2235:-0.0083066332 2236:-0.0028359358 2237:0.0037684775 2238:-0.0011269714 2239:-0.0015149916 2240:-0.0047516024 2241:0.0042977403 2242:0.0055967142 2243:0.0041481946 2244:-0.00084300724 2245:0.0034487647 2246:0.006031044 2247:0.0023790178 2248:0.010347129 2249:0.0027493834 2250:-0.0015987141 2251:-0.0031851112 2252:0.0036905038 2253:0.0060689445 2254:0.00091820254 2255:-0.00014009159 2256:-0.0051090313 2257:-0.0085912066 2258:-0.0022995056 2259:-0.012931105 2260:-0.0048385229 2261:0.0077656732 2262:-0.0059413785 2263:-0.0054680776 2264:0.0045165187 2265:0.00067385797 2266:0.0033496867 2267:0.00051930883 2268:-0.01226044 2269:-0.0025562047 2270:-0.0048916908 2271:0.0033489121 2272:-0.011378453 2273:-0.01884037 2274:-6.8441646e-005 2275:-0.0042935945 2276:-0.0062704298 2277:0.0033145474 2278:-0.010822581 2279:-0.0015210338 2280:0.0031226738 2281:-0.0026996295 2282:0.011208763 2283:0.010142636 2284:-0.0050598078 2285:0.00057653569 2286:0.0052731652 2287:-0.0025861434 2288:0.00028563338 2289:-0.0013691416 2290:0.015228685 2291:-0.0090343274 2292:-0.0036624418 2293:0.010843756 2294:-0.0064209765 2295:0.0032916681 2296:0.0039977291 2297:0.0024817394 2298:0.015576662 2299:0.011098811 2300:-0.0024826395 2301:-0.0037729602 2302:0.0051161216 2303:-0.00020420931 2304:0.012456839 2305:0.0053110258 2306:0.0017271352 2307:-0.011557367 2308:-0.0020596852 2309:0.002271343 2310:0.0045802866 2311:0.00012054949 2312:-0.0033249848 2313:0.0038723178 2314:0.0031081135 2315:0.0029269616 2316:0.0093093966 2317:-0.0045470754 2318:-0.0075321214 2319:0.0011113707 2320:0.0028325117 2321:-0.017906527 2322:0.0065087191 2323:-0.00095542699 2324:-0.0046848273 2325:-0.0005667129 2326:0.010294308 2327:0.012029265 2328:-0.0054287225 2329:0.019141551 2330:-0.0028524871 2331:-0.0076947547 2332:0.00016658131 2333:0.0028903428 2334:-0.010514935 2335:-0.010444582 2336:-0.0045906623 2337:-0.012518373 2338:0.004173619 2339:-0.0049982065 2340:-0.0045153391 2341:-5.2019053e-006 2342:0.0033207686 2343:0.0041086113 2344:-0.00058110121 2345:0.0059622208 2346:-0.0011969276 2347:-0.0021083409 2348:-0.010173071 2349:-0.0097275576 2350:-0.0030502144 2351:-0.0013375579 2352:-0.0024202579 2353:0.00030803296 2354:0.007004712 2355:0.013026151 2356:-0.0034631406 2357:0.0020234964 2358:0.0015210531 2359:-0.0010817361 2360:0.0022470013 2361:0.0087290801 2362:-0.010187217 2363:-0.0068341175 2364:-0.011462666 2365:-0.00054953559 2366:-0.0076533698 2367:0.0098603681 2368:-0.001437324 2369:0.011776606 2370:0.0038427223 2371:-0.0044272688 2372:-0.012198282 2373:0.0025047736 2374:-0.0086921686 2375:0.0059874877 2376:-0.0089365269 2377:0.0085797491 2378:-0.0027364108 2379:0.0017214357 2380:0.0091552309 2381:0.007871798 2382:0.0013897546 2383:0.0055910844 2384:-0.0015052528 2385:-0.0053782785 2386:-0.0053439487 2387:0.0005119597 2388:0.006930594 2389:-0.0088791823 2390:-0.0010925757 2391:0.020450269 2392:-0.011067346 2393:0.0046593296 2394:0.0093707705 2395:-8.8764366e-007 2396:0.0024051109 2397:-0.0028703626 2398:0.0074424253 2399:0.0038836601 2400:-0.011905671 2401:0.0020729279 2402:0.0078294397 2403:-0.007427156 2404:0.002842995 2405:0.0037215914 2406:-0.015351052 2407:-0.01014196 2408:-0.0043511156 2409:-0.0028513443 2410:-0.00042415863 2411:0.0054108943 2412:0.0046237006 2413:0.001470133 2414:-0.0028438498 2415:0.0038207582 2416:0.0032943921 2417:-0.0011577901 2418:-0.0080080712 2419:0.0091153553 2420:0.0033617065 2421:-7.3568057e-005 2422:-0.0089304625 2423:0.00039103589 2424:0.0091906018 2425:-0.0021092296 2426:-0.016095973 2427:-0.0029188181 2428:-0.0053760804 2429:0.0067304019 2430:-0.0065364837 2431:0.006610286 2432:-0.00050913769 2433:0.0080729304 2434:0.0033348287 2435:-0.013108664 2436:0.0039030632 2437:-0.0039622564 2438:-0.003124258 2439:-0.002869198 2440:0.00091982812 2441:0.0026371895 2442:-0.0049592813 2443:-0.0021577982 2444:-0.0025813694 2445:0.0081375253 2446:-0.00055293495 2447:0.0040816716 2448:0.0069414124 2449:-0.0049195383 2450:0.0026822802 2451:0.0072969811 2452:0.0084849967 2453:-0.00234513 2454:-0.0062939004 2455:-0.0064210205 2456:0.0084237172 2457:-0.0089792357 2458:0.0073039698 2459:0.0099469671 2460:0.0052127353 2461:-0.0053597233 2462:0.0060427528 2463:-0.0013293058 2464:0.0076546898 2465:0.002058193 2466:-0.0042261487 2467:-0.0011119697 2468:0.00031598175 2469:-0.0058417551 2470:-0.0012909272 2471:-0.004748107 2472:-0.0014710838 2473:0.0037236725 2474:-0.0018658916 2475:0.00098791427 2476:0.0016439298 2477:-0.011260051 2478:0.0060442858 2479:-0.0056408248 2480:-0.00010449064 2481:0.010646184 2482:0.0017574199 2483:-0.0025642955 2484:-0.00099298652 2485:-0.0067587888 2486:-0.0077187518 2487:-0.0035707626 2488:-0.002282034 2489:0.0073624668 2490:-0.002446809 2491:0.0054063591 2492:0.00098468425 2493:-0.014746852 2494:0.0065405922 2495:0.003406132 2496:-0.0079245427 2497:-0.0037131767 2498:-0.0099810924 2499:0.0020553845 2500:0.00093427413 2501:0.00037724413 2502:0.00091005776 2503:0.014347646 2504:-0.00018119187 2505:0.0072143938 2506:0.0016250744 2507:-0.0036351996 2508:-0.0024039729 2509:-0.019204228 2510:-0.00024951322 2511:-0.007752761 2512:-0.0017988717 2513:0.0026897335 2514:0.0020349055 2515:-0.0038482251 2516:0.003227577 2517:0.0023028112 2518:-0.0080233421 2519:-0.0020404722 2520:-0.0031970528 2521:0.0034496151 2522:0.0063371712 2523:0.0019080187 2524:0.0088946951 2525:0.0071272086 2526:-0.010534983 2527:-0.00067977245 2528:-0.0099139667 2529:0.0036805975 2530:0.0057369219 2531:0.010848691 2532:-0.0026379459 2533:-0.0022625593 2534:-0.0084065004 2535:-0.0025556661 2536:-0.002928223 2537:0.00090037091 2538:-0.0020460536 2539:0.0023758076 2540:-0.0045544399 2541:-0.0014550227 2542:0.00036284972 2543:-0.0014069464 2544:0.012773177 2545:0.0013342173 2546:-0.0007508926 2547:0.00027264648 2548:0.014165778 2549:0.005138591 2550:0.0040357796 2551:-0.0046958234 2552:0.0056049148 2553:-6.6362405e-005 2554:0.0084439799 2555:0.0052455651 2556:0.003279619 2557:0.0023400725 2558:0.0068809847 2559:-0.0043906474 2560:0.0052744133 2561:-0.0049467312 2562:0.0073965407 2563:-0.0034310962 2564:-0.0083302037 2565:-0.015547125 2566:-0.00090795798 2567:-0.0019765691 2568:0.0031159523 2569:0.00040796803 2570:-0.0087847671 2571:0.00016817279 2572:0.0070060481 2573:0.010995354 2574:0.0043978268 2575:-0.0013366483 2576:-0.0057746324 2577:-0.0088388343 2578:0.0015026573 2579:0.0056211625 2580:-0.0051693693 2581:-0.0005291769 2582:-0.0031964744 2583:-0.005080679 2584:0.0016654895 2585:0.011221167 2586:0.0047479596 2587:-0.0026154699 2588:-0.0024837434 2589:-0.0051929653 2590:-0.0018022539 2591:0.0020562996 2592:-0.0043832031 2593:-0.010307411 2594:0.006565477 2595:-0.00035461749 2596:-0.0021601465 2597:-0.0023585349 2598:-0.00446212 2599:0.010291166 2600:-1.6586221e-005 2601:0.0033515101 2602:0.0010614578 2603:0.001572504 2604:-0.00078518171 2605:-0.0044427562 2606:-0.019879193 2607:0.0052163819 2608:-0.0063938021 2609:-0.012082357 2610:-0.0050027689 2611:0.0079823224 2612:0.0025514237 2613:0.0048104665 2614:-0.00066697381 2615:0.0054830998 2616:-0.0018799787 2617:0.014062722 2618:-0.0028165994 2619:-0.0040536258 2620:-0.00097390001 2621:-0.0040125489 2622:-0.013213414 2623:-0.0056949027 2624:-0.0029217902 2625:0.0022397713 2626:0.006103031 2627:0.0019607267 2628:-0.0056130175 2629:0.0021693227 2630:-0.0038819479 2631:-0.0073905133 2632:-0.013306907 2633:0.016540151 2634:0.0028688389 2635:-0.00067957805 2636:-0.0082834453 2637:-0.0035940496 2638:0.0045375859 2639:0.0039550941 2640:-0.011155449 2641:0.0021527466 2642:0.0086312146 2643:0.0048327128 2644:-0.0009920971 2645:0.0035907758 2646:0.00040953344 2647:0.012651937 2648:-0.001361861 2649:-0.010298935 2650:-0.0034235841 2651:0.00073263912 2652:0.0058285756 2653:-0.0042720651 2654:-0.0012617705 2655:0.0001428119 2656:0.0093339444 2657:-0.0012596307 2658:-0.0049279384 2659:0.0083463005 2660:0.0017305153 2661:0.0073252211 2662:-0.0066113902 2663:-0.006768549 2664:0.0064729555 2665:-0.010574966 2666:-0.0076822249 2667:0.0077847659 2668:-0.0082421283 2669:0.013435787 2670:-0.0039997763 2671:-0.0018070854 2672:0.0025449561 2673:-0.00053278272 2674:-0.0020434964 2675:-0.00071116613 2676:-0.0067277422 2677:0.006835837 2678:-0.0074422534 2679:-0.0042632885 2680:-0.0047523952 2681:-0.0002074017 2682:-0.0047493171 2683:-0.00034794274 2684:0.0012203485 2685:-0.0017844079 2686:-0.0054491864 2687:0.0070291452 2688:8.6645797e-005 2689:0.021374138 2690:-0.0033566437 2691:-0.0081753223 2692:-0.0044734706 2693:0.014539486 2694:-0.0010770715 2695:0.0074678652 2696:-0.0056173542 2697:0.0020511337 2698:0.0060431205 2699:-7.8000307e-005 2700:-0.00047979146 2701:-0.0029984057 2702:-0.0044658325 2703:-0.0019067713 2704:-0.009380693 2705:0.0023615914 2706:0.011506818 2707:0.015984481 2708:0.0017496132 2709:0.0055910578 2710:0.0005019735 2711:-2.1597048e-005 2712:-8.311393e-005 2713:-0.0072931535 2714:0.0010024347 2715:-0.0045934575 2716:0.0018015642 2717:-0.0053985215 2718:-0.0008761274 2719:-0.0054339288 2720:0.00085944186 2721:-0.0066857594 2722:0.0055077904 2723:-0.00047736073 2724:0.0062002109 2725:0.0165746 2726:0.012801868 2727:-0.00041970015 2728:0.0043225832 2729:2.5943453e-006 2730:-0.0018343016 2731:0.011066361 2732:-0.005091503 2733:0.0043590644 2734:-0.0036629551 2735:-0.0015105395 2736:0.0071310971 2737:-0.011618894 2738:0.0060901631 2739:-0.0089580572 2740:-0.0032230196 2741:0.0016274027 2742:0.0071105757 2743:-0.0017638512 2744:-0.0061992261 2745:0.0022200829 2746:0.0036554836 2747:-0.00079684317 2748:0.00024408819 2749:-0.0013435078 2750:-0.0028313485 2751:-0.0031055092 2752:0.0083436274 2753:-0.0013395468 2754:-8.6458461e-005 2755:-0.0014773093 2756:-0.0035350497 2757:0.0039873446 2758:-0.012444885 2759:-0.0081252897 2760:0.00021497208 2761:-0.0034212521 2762:-0.0025913676 2763:-0.010624885 2764:0.0048777449 2765:-0.0077676892 2766:-0.00070438675 2767:-0.0027477501 2768:0.0042921705 2769:0.0012178335 2770:-0.0091062299 2771:-0.0014036241 2772:-0.0031891065 2773:-0.0099321665 2774:0.0060670064 2775:0.0020043517 2776:-0.0075957572 2777:-0.0035332199 2778:0.00036809923 2779:-0.0010196086 2780:-0.0077344884 2781:0.0014651554 2782:-0.0032143215 2783:-0.00097822946 2784:0.015124871 2785:-0.0028135425 2786:0.0023895977 2787:0.0097957698 2788:0.010497545 2789:-0.012450087 2790:0.0060455341 2791:0.0089662376 2792:-0.00062559946 2793:-0.016017504 2794:0.0055851307 2795:0.0029546107 2796:-0.0081960049 2797:0.0023234259 2798:-0.00027712856 2799:0.0087162575 2800:0.003187388 2801:0.0021776033 2802:0.016677401 2803:-0.0040407838 2804:0.0059799365 2805:0.002317597 2806:-0.015445213 2807:-0.0034546011 2808:0.0029265382 2809:-0.0090418118 2810:0.0032565856 2811:0.0025541244 2812:-0.001337302 2813:0.0053311648 2814:0.0028103891 2815:-0.0020267827 2816:0.0078683529 2817:0.0066290552 2818:-0.0071986954 2819:0.0075482996 2820:0.012583292 2821:-0.0054402545 2822:0.0024338042 2823:-0.0033456466 2824:-0.0062319718 2825:0.0012961905 2826:-0.00068437519 2827:0.0019285746 2828:0.0033922659 2829:0.0014245367 2830:0.0053130413 2831:0.0054691876 2832:-0.0088283953 2833:0.00023228485 2834:-0.0029907694 2835:-0.0050708609 2836:0.0064111494 2837:0.0021463374 2838:-0.0036938503 2839:0.0055287693 2840:0.0077373477 2841:-0.0022344146 2842:0.0099292769 2843:-0.0064670341 2844:0.0013317607 2845:0.0028147284 2846:-0.0042635203 2847:0.011173185 2848:0.00075299429 2849:-0.0014696099 2850:0.0012275513 2851:0.0072613755 2852:0.0049491062 2853:-0.0065992069 2854:0.0023300223 2855:0.0021563321 2856:0.018871923 2857:-0.00037924411 2858:0.0041313362 2859:0.013994936 2860:-0.0037368395 2861:-0.0064559108 2862:-0.0052420789 2863:0.0078812035 2864:-0.0086892656 2865:-0.0039678325 2866:-0.0093054057 2867:-0.00026449535 2868:-0.01229674 2869:-0.0034866664 2870:0.0011414201 2871:-0.0022614471 2872:0.0038506122 2873:0.0059799997 2874:-0.0065508236 2875:-0.0041900619 2876:-0.0089225754 2877:-0.007147739 2878:-0.0096035289 2879:-0.0052653184 2880:-0.010896734 2881:0.014987859 2882:-0.0036347344 2883:-0.0036382769 2884:0.00069000369 2885:-0.0011993473 2886:0.00060895179 2887:0.00072304674 2888:-0.00046354294 2889:-0.0029730147 2890:-0.00046189346 2891:0.0093423156 2892:0.0057852437 2893:-0.00032616843 2894:-0.0035547702 2895:0.00050259633 2896:-0.0060046466 2897:-0.00041083131 2898:0.0048481912 2899:-0.00028954928 2900:-0.0064555927 2901:-0.0046639834 2902:0.0019769222 2903:-0.0069892323 2904:-0.0011888401 2905:0.00028152317 2906:-0.0054347736 2907:-0.0028365172 2908:-0.0018684686 2909:-0.0036516482 2910:0.0057417557 2911:0.0030025943 2912:0.0075290939 2913:0.00092564691 2914:-0.013292451 2915:-0.0059689267 2916:0.00034372942 2917:0.0072974072 2918:0.0018936882 2919:-0.017670549 2920:0.0048956027 2921:-0.013168091 2922:-0.0038581961 2923:0.0014762235 2924:0.010006874 2925:0.0021742983 2926:0.01236283 2927:-0.00046457473 2928:0.00066175147 2929:-0.0090729167 2930:0.0045388927 2931:0.0074446092 2932:0.0038274219 2933:0.0061530596 2934:-0.002721556 2935:0.0032982264 2936:0.0048472251 2937:-0.0031544931 2938:0.0038520405 2939:-0.0055627318 2940:-0.0012261431 2941:-0.004474907 2942:0.0027834367 2943:0.0050099133 2944:0.0018865857 2945:0.0060117152 2946:-0.00085580584 2947:-0.0021363031 2948:-0.0021009057 2949:-0.001150016 2950:-0.002130752 2951:-0.010236175 2952:0.0031507141 2953:0.0059071265 2954:0.0087391682 2955:0.0039861289 2956:-0.0043233384 2957:0.0029050404 2958:-0.0079065159 2959:-0.00097388514 2960:-0.00025232299 2961:-0.0011278077 2962:-0.00070099346 2963:0.001616978 2964:0.0052871547 2965:-0.0061725444 2966:0.0010186902 2967:-0.0096861453 2968:0.00024140309 2969:-0.0068971284 2970:-0.01547248 2971:-0.00044894766 2972:0.0048499558 2973:0.0018521636 2974:-0.0019661823 2975:-0.0049506454 2976:0.0019126751 2977:-0.016298868 2978:0.00020347497 2979:0.0016288879 2980:0.0091804015 2981:0.0032642499 2982:-0.0006879137 2983:-0.010651427 2984:-0.0096204975 2985:0.017491656 2986:-0.0075680896 2987:-0.0053466841 2988:0.00028200293 2989:-0.0018206031 2990:0.007905332 2991:-0.013470799 2992:-0.0087540697 2993:-0.0028478548 2994:-0.0054503457 2995:-0.00079469573 2996:-0.0036672515 2997:-0.00042829289 2998:0.0017422061 2999:-0.003504454 3000:0.0025284385 3001:0.012542211 3002:-0.0037607852 3003:-0.0087128355 3004:0.015583075 3005:-0.0083289674 3006:-0.011823407 3007:0.0016761531 3008:-0.011447338 3009:-0.0019514259 3010:0.0022550876 3011:0.0080801512 3012:0.0062607523 3013:-0.00018680654 3014:-0.0046131072 3015:0.0042794592 3016:0.0093027016 3017:-0.010745175 3018:-0.011423792 3019:0.0016985971 3020:4.949502e-005 3021:-0.0097055545 3022:-0.00088445063 3023:-0.0016137649 3024:-0.0055111168 3025:0.00012516126 3026:0.00026592013 3027:0.0035774653 3028:-0.0028450456 3029:-0.00023472582 3030:0.0044788817 3031:-0.0053926822 3032:-0.0056379186 3033:-0.0029074221 3034:-0.010196325 3035:-0.00033734346 3036:0.0057688243 3037:-0.0082866352 3038:-0.001617408 3039:-0.00068494967 3040:-0.001622003 3041:-0.0076342644 3042:0.0079365956 3043:-0.0026456884 3044:7.7103681e-005 3045:0.0064238908 3046:-0.0020912176 3047:0.017939992 3048:0.0017953141 3049:0.0063878316 3050:-0.003478265 3051:-0.0039859511 3052:-0.00068628355 3053:0.0028358215 3054:0.013957143 3055:-0.0024390682 3056:-0.017193189 3057:-0.0063354531 3058:0.0089771162 3059:0.0088097811 3060:-0.0026767864 3061:-0.0019211883 3062:-0.0058363268 3063:-0.00013393326 3064:-0.0010472721 3065:0.0039953756 3066:-0.0013219825 3067:-0.0058763029 3068:0.00027812268 3069:-0.0062801665 3070:0.012604937 3071:-0.015995748 3072:0.012357397 3073:-0.0055806214 3074:-0.0046723649 3075:-0.0034642596 3076:0.0037831811 3077:0.010280175 3078:-0.0065104079 3079:0.0025139542 3080:-0.00014917955 3081:-0.0037371099 3082:0.0067207844 3083:0.0012627483 3084:-0.0095248067 3085:0.0095613862 3086:-0.0094018595 3087:0.0077144512 3088:-0.0023354896 3089:0.0092045001 3090:0.0011942151 3091:-0.0038473713 3092:0.0086217707 3093:0.0029322998 3094:0.0016866521 3095:0.00065898372 3096:-0.0061292255 3097:-0.0094901372 3098:0.0061624644 3099:0.0015128241 3100:-0.007394523 3101:-0.0046402646 3102:0.0069872043 3103:0.0028762893 3104:-0.0045533812 3105:-0.0040135967 3106:-0.011298225 3107:-0.0062284161 3108:0.00047128349 3109:0.0066671013 3110:-0.0067975587 3111:-0.0010586704 3112:0.0017846027 3113:0.0083756142 3114:-0.0048365681 3115:0.0028816433 3116:-0.012231199 3117:-0.00057995726 3118:0.00035819416 3119:-0.010723825 3120:0.0070829263 3121:-0.0064526486 3122:0.0044762386 3123:0.0022404235 3124:0.012913521 3125:-0.0044218376 3126:0.0024248643 3127:-0.011625731 3128:-0.0071139222 3129:-0.00028542231 3130:-0.0052844169 3131:0.0054373606 3132:0.0045440307 3133:-0.015143754 3134:0.0035616104 3135:0.0050085317 3136:-0.0019092489 3137:-0.010687381 3138:0.0003830124 3139:-0.010829281 3140:-0.0049534689 3141:0.002503453 3142:0.0018581115 3143:0.0099792947 3144:-0.0038756655 3145:0.005387576 3146:-0.001550825 3147:0.0068457311 3148:0.00055876755 3149:-0.0081470433 3150:-0.00014310191 3151:-0.0021848496 3152:-0.0044101428 3153:-0.0089904481 3154:0.0013376417 3155:0.0065981472 3156:-0.0041313247 3157:0.010118304 3158:-0.011500531 3159:-0.0034248812 3160:0.0028484064 3161:-0.0012006614 3162:0.0074605698 3163:0.004808861 3164:0.00091974848 3165:-0.0039945401 3166:0.0062349168 3167:-0.0076726935 3168:8.8327606e-005 3169:-0.012233571 3170:-0.0053345794 3171:-0.0013528819 3172:-0.0028462836 3173:-0.0002624968 3174:0.0074353281 3175:0.0087422427 3176:-0.0010027231 3177:-0.0013181866 3178:0.013967752 3179:-0.00013132519 3180:0.0035094333 3181:0.0033492973 3182:-0.0008177286 3183:0.0010661173 3184:0.021466628 3185:0.0024098898 3186:0.002625003 3187:0.002572458 3188:0.0097134039 3189:-0.0060775399 3190:-0.014475917 3191:0.002608472 3192:-0.0094795975 3193:0.0018377465 3194:-0.0028919397 3195:0.0041009763 3196:0.0054575116 3197:0.0055663599 3198:0.0042295424 3199:0.0019741715 3200:0.0072986416 3201:-0.0052453815 3202:0.0025845536 3203:0.010232161 3204:-0.0003403774 3205:0.0086947549 3206:-0.015458035 3207:-0.0084797361 3208:0.0052941105 3209:0.0074461737 3210:-0.017925975 3211:0.0036115659 3212:0.00032480622 3213:-0.0018853381 3214:0.0054403692 3215:0.0028656409 3216:-0.0020116417 3217:0.0085328581 3218:0.008255387 3219:-0.00045317821 3220:-0.0045854365 3221:0.0032659436 3222:-0.00091334354 3223:-0.0042526747 3224:-0.00083060576 3225:-0.0018878057 3226:0.0018626909 3227:-0.0020910192 3228:-0.0056477536 3229:0.00030425341 3230:-0.0041545583 3231:0.0027793221 3232:-0.007485362 3233:0.0025062732 3234:-0.00078455891 3235:0.0013807744 3236:-0.013174709 3237:-0.0074177852 3238:-0.0044073237 3239:0.0017057302 3240:0.0047754822 3241:0.001404772 3242:-0.0084440059 3243:-0.0010632283 3244:-0.0088839198 3245:-0.008164637 3246:-0.0038046623 3247:-0.0083401897 3248:0.0026920831 3249:-0.0045649296 3250:0.0034377189 3251:0.0097738687 3252:0.00015879124 3253:-0.0021867992 3254:-0.0030871074 3255:-0.0057437123 3256:0.0054997224 3257:0.0052838399 3258:-0.00026983222 3259:-0.0014602729 3260:-0.01053428 3261:-0.0050365259 3262:-0.0081082291 3263:0.001801282 3264:0.00081115887 3265:0.00095504227 3266:0.0026558027 3267:-0.0033096813 3268:-0.0025129819 3269:0.0067524728 3270:0.006800577 3271:-0.0035533255 3272:0.0064690522 3273:0.0089528083 3274:-0.0064067246 3275:-0.012230081 3276:-0.0099327878 3277:0.01924227 3278:-0.0028795431 3279:-0.0066537532 3280:0.0071088908 3281:0.002533961 3282:-0.0031402836 3283:-0.013907873 3284:-0.0073599888 3285:0.0049379432 3286:0.012016877 3287:0.0045323114 3288:-0.0029805861 3289:-0.0032052708 3290:0.0040569288 3291:0.0024017149 3292:-0.0058438188 3293:-0.0035865803 3294:0.0018511452 3295:0.0030086609 3296:-0.0047267938 3297:0.00030985517 3298:-3.3681415e-005 3299:-0.0039088739 3300:-0.004261345 3301:0.0020232507 3302:0.0026204419 3303:0.002109256 3304:-0.012209088 3305:0.0057079481 3306:0.0017187746 3307:0.007034751 3308:-0.0035911842 3309:-0.0026277094 3310:0.00022662159 3311:0.0055043165 3312:0.00023089014 3313:0.0060480136 3314:-0.00080718031 3315:-0.0023960233 3316:-0.00095418649 3317:-0.015532416 3318:-0.0051875631 3319:0.0018564098 3320:-0.00050538485 3321:-0.0075860218 3322:0.0086379684 3323:-0.00072964064 3324:-0.012787299 3325:0.0021789913 3326:-0.013404305 3327:0.0040257352 3328:0.0050288464 3329:-0.001868494 3330:-0.0006802188 3331:-0.0084833328 3332:0.00030197546 3333:0.0062627471 3334:0.0093876419 3335:0.0069123913 3336:0.0066276815 3337:-0.018190248 3338:0.0053955397 3339:-0.0023067696 3340:-0.0022666735 3341:0.0003365434 3342:-0.0028704603 3343:-0.0016000451 3344:0.002243314 3345:-3.4409646e-005 3346:-0.0028042961 3347:-0.0030416479 3348:0.0031938153 3349:0.0057450841 3350:0.0060706361 3351:0.0012118547 3352:0.0081504956 3353:-0.0027819101 3354:0.0074368097 3355:0.0060624243 3356:-0.0055349856 3357:-0.013938179 3358:-0.00093888435 3359:0.0046442568 3360:-0.012244163 3361:0.0059191982 3362:-0.0011343901 3363:-0.0085666533 3364:0.003534562 3365:-0.013263384 3366:-0.0014056473 3367:0.00011673778 3368:0.0076390876 3369:0.001752521 3370:0.0070102112 3371:0.0032884385 3372:-0.0042794649 3373:-0.0041115338 3374:0.0037801003 3375:0.0078638717 3376:-0.0038142046 3377:-0.0065507615 3378:-0.0050718158 3379:0.005067168 3380:0.0044583814 3381:-0.0020645892 3382:0.0042050285 3383:0.010469201 3384:-0.010312745 3385:-0.0014351031 3386:-0.0054700839 3387:0.012381823 3388:0.0035510106 3389:-0.0083614933 3390:0.0034708592 3391:-0.00013083356 3392:-0.0090587766 3393:-0.0020826575 3394:0.0011515718 3395:0.010129402 3396:0.0031857178 3397:0.00036275761 3398:0.0048245748 3399:0.0037408771 3400:-0.0033552492 3401:0.0021859631 3402:-0.0011183673 3403:-2.6272468e-005 3404:-0.00041098211 3405:0.0041482389 3406:-0.0099311014 3407:-0.0062165071 3408:-0.0070231302 3409:0.004432517 3410:-0.006870455 3411:-0.0016281275 3412:-0.0072246423 3413:-0.0074714704 3414:0.0035903423 3415:-0.0049170514 3416:-0.00019575512 3417:-0.0034870126 3418:0.0015868761 3419:-0.0087022535 3420:0.0018477761 3421:0.0032221088 3422:0.0057179956 3423:0.0029541955 3424:-0.0053125858 3425:0.0068034115 3426:0.0019386175 3427:-0.0020764225 3428:-0.0020653485 3429:-0.005061424 3430:-0.0079912034 3431:-0.0096910576 3432:-0.0031280754 3433:-0.0071917678 3434:-0.0085593283 3435:-0.016801652 3436:0.0047774296 3437:-0.013366644 3438:-0.00032864125 3439:-0.0011557693 3440:-0.0010936844 3441:0.00060488575 3442:0.0021892457 3443:0.012329018 3444:-0.0062377789 3445:-0.0018921719 3446:-0.0065530912 3447:-0.009309129 3448:0.0066770489 3449:0.0095487665 3450:0.0063573177 3451:0.005297127 3452:-0.0012887101 3453:0.001830053 3454:0.0047075393 3455:0.0024708967 3456:0.003631619 3457:-0.0019542736 3458:-0.0017719273 3459:0.00093549352 3460:0.0014951666 3461:-0.0060445629 3462:-0.0066433107 3463:-0.0084285284 3464:-0.0034198204 3465:0.0023673755 3466:0.0034799506 3467:-0.0025416489 3468:-0.0031722502 3469:0.0035922423 3470:-0.0027312627 3471:-0.0062888159 3472:0.0012013166 3473:0.0080465066 3474:-0.0026152622 3475:-0.0046557869 3476:-0.006739874 3477:0.0037399802 3478:-0.010377891 3479:0.010746005 3480:-0.0042385761 3481:0.0081965497 3482:0.0090642538 3483:-0.0033134245 3484:-0.0073754652 3485:0.00054910654 3486:-0.0019448099 3487:-0.0011028331 3488:-0.0037427188 3489:0.0020032934 3490:0.0078082384 3491:-0.0066759543 3492:0.0035442224 3493:0.0054925707 3494:-0.010412371 3495:0.0034650779 3496:0.0051151338 3497:-0.0013538678 3498:-0.003277227 3499:0.0040028409 3500:0.0040111319 3501:-0.0030820836 3502:0.0095935375 3503:0.0031838155 3504:-0.010456656 3505:0.009573284 3506:-0.00019298385 3507:0.0024559566 3508:-0.012049012 3509:0.005307843 3510:0.003506929 3511:0.0013866203 3512:-0.0012414526 3513:-0.0024875969 3514:-0.0015851919 3515:0.0027939138 3516:0.0040176004 3517:-0.022350031 3518:0.0050428966 3519:-0.0024950627 3520:0.0034170877 3521:-0.0087468224 3522:-0.0051376525 3523:0.0040359873 3524:-0.0059461862 3525:0.0056588276 3526:-0.0054144114 3527:-0.0020121987 3528:0.012376765 3529:0.0003838666 3530:-0.0056469772 3531:0.011036956 3532:-0.0044084401 3533:-0.0026469411 3534:0.0018327338 3535:0.0069002625 3536:0.0023018044 3537:-0.0069422214 3538:-0.012281572 3539:0.0029189162 3540:9.1850923e-005 3541:0.00064488803 3542:-0.0046936157 3543:-0.0018576979 3544:-0.0025752595 3545:0.0083143248 3546:0.0058748458 3547:0.0092841368 3548:0.0010410997 3549:0.0069663475 3550:0.00084300128 3551:0.010500619 3552:-0.001296333 3553:0.0037611338 3554:0.002405687 3555:0.0007634236 3556:0.000974274 3557:0.0004864685 3558:-0.0022928048 3559:0.0017775993 3560:-0.0021516602 3561:0.0065372951 3562:0.00781049 3563:-0.010202046 3564:-0.0019016297 3565:-0.014826071 3566:0.0029114264 3567:0.0041140099 3568:0.00021643881 3569:0.012752319 3570:-0.0092692957 3571:0.0066395689 3572:-0.0073931303 3573:-0.0019051037 3574:0.012346516 3575:0.00056697216 3576:0.00061907053 3577:-0.01015897 3578:-0.0040581292 3579:-0.0030862026 3580:0.0050463241 3581:0.0012989044 3582:-0.0076031841 3583:-0.0014093948 3584:0.002959717 3585:0.0036334564 3586:-0.0055744561 3587:0.0062815486 3588:-0.0018393379 3589:-0.0068115903 3590:0.0013207286 3591:0.0016038885 3592:-0.0075413424 3593:0.0092526369 3594:-0.0043538148 3595:0.008588744 3596:0.002481694 3597:-0.0047866603 3598:-0.0051623705 3599:0.0095577951 3600:-0.00031292116 3601:-0.0014700534 3602:0.0074493679 3603:0.00485017 3604:-0.0023606535 3605:-0.0025839827 3606:-0.019967387 3607:-0.011022536 3608:-0.0049394862 3609:-0.0065378811 3610:-0.0095694375 3611:0.0054052346 3612:0.0068934819 3613:0.0074698375 3614:-0.0027568092 3615:0.00086502749 3616:-0.0043113821 3617:0.0094962615 3618:-0.0013681857 3619:0.0031972237 3620:0.0073438805 3621:0.00023848317 3622:-0.0083175908 3623:-0.0020254676 3624:0.006521833 3625:-0.002024042 3626:0.0083065859 3627:-0.001451718 3628:-0.0016893351 3629:-0.0018415041 3630:-0.0055022854 3631:-0.00010214626 3632:-0.00036557108 3633:0.00033024404 3634:-0.0084216406 3635:-0.0079376925 3636:-0.011154692 3637:-0.0083759493 3638:-0.0068019771 3639:0.0025915005 3640:-0.0011309693 3641:0.0082970186 3642:0.0029044467 3643:0.004979319 3644:-0.0006646898 3645:0.0068610472 3646:0.0018163859 3647:0.018231148 3648:0.0030463442 3649:-0.0035783799 3650:0.0059796049 3651:0.0039852077 3652:0.0060113244 3653:-0.001811304 3654:-0.0047753391 3655:-0.0049494674 3656:0.011563079 3657:0.0052076238 3658:-0.00085946663 3659:0.0064377391 3660:0.00057799384 3661:-0.0063004931 3662:-0.0028513088 3663:0.00011268123 3664:0.0036303125 3665:-0.0055941615 3666:-0.0020888894 3667:0.0053194834 3668:0.0017298424 3669:0.0060583237 3670:-0.00070457121 3671:0.0049536211 3672:-0.012702997 3673:-0.0040352665 3674:-0.00010931909 3675:0.0046339659 3676:-0.011212855 3677:-0.0053967361 3678:-0.0064336906 3679:-0.0065548344 3680:-0.003902527 3681:-0.0022859037 3682:0.0039185457 3683:-0.0024503089 3684:-0.00010799321 3685:-0.0017993199 3686:0.0011321529 3687:0.0017257931 3688:0.00094164455 3689:0.009037657 3690:-0.0088688285 3691:0.0034842677 3692:-0.0049713804 3693:0.0052595065 3694:-0.0023166887 3695:0.0060350222 3696:-0.0057423046 3697:0.0068692186 3698:-0.00056906935 3699:0.00082156813 3700:-0.0027572111 3701:0.0019754836 3702:-0.010756132 3703:-0.002678383 3704:-0.0031659588 3705:0.010011253 3706:0.0052938562 3707:0.005531361 3708:-0.0017956475 3709:-0.011009383 3710:-0.00032090878 3711:-0.0029036464 3712:0.00111298 3713:0.0019986338 3714:-0.0009005116 3715:-0.001509969 3716:0.0051755085 3717:-0.0047928524 3718:-0.003711128 3719:-0.0049526722 3720:0.00097942659 3721:-0.010706709 3722:0.005998613 3723:-0.0020884527 3724:0.0021516861 3725:0.0077644352 3726:-0.00059687886 3727:-0.0072639231 3728:-0.0040288707 3729:-0.0025136989 3730:0.0020773038 3731:0.0013399309 3732:-0.0043556721 3733:0.0072645837 3734:0.0022827385 3735:0.0017536046 3736:0.0037140711 3737:-0.017180829 3738:0.0053187951 3739:-0.0015716261 3740:-0.0045651115 3741:-0.00080301487 3742:0.0076432945 3743:0.0040959613 3744:0.00065561755 3745:0.0054955541 3746:-0.0037399752 3747:0.00024358179 3748:0.0032582437 3749:-0.0021222893 3750:0.0018491426 3751:-0.0082396355 3752:0.0083624301 3753:-0.0029878214 3754:0.0052585936 3755:0.0089145623 3756:-0.0013937201 3757:0.0015630434 3758:-0.0075387467 3759:-0.0080148529 3760:0.0065656326 3761:0.0038157753 3762:-0.0029013713 3763:-0.016892428 3764:0.00014800823 3765:-0.0067538338 3766:0.0018601493 3767:-0.0023420684 3768:0.0013867584 3769:-0.001657654 3770:-0.014944703 3771:-1.2874713e-005 3772:-0.0038077825 3773:0.00059600176 3774:0.0036430949 3775:0.0047591463 3776:-0.0011124901 3777:-0.0094476977 3778:-0.0016646034 3779:0.0084249691 3780:-0.004478573 3781:0.0043788794 3782:0.00041151414 3783:-0.0036784297 3784:0.0061256455 3785:-0.0015431909 3786:-0.0056758793 3787:0.0078082646 3788:-0.006687256 3789:-0.0094509348 3790:0.0064708222 3791:0.0086449834 3792:-0.0039809963 3793:-0.011395674 3794:0.0022859784 3795:0.0050354386 3796:-0.0035290516 3797:0.0034466652 3798:-0.0014055841 3799:-0.00019874668 3800:0.0028338041 3801:-0.0010200873 3802:0.004121626 3803:-0.010528275 3804:0.011959818 3805:-0.010064098 3806:-0.020702587 3807:-0.003065213 3808:0.0028368375 3809:-0.003695131 3810:0.00012537756 3811:0.0055878324 3812:0.010713805 3813:0.0035089009 3814:-0.0021056116 3815:0.0041492525 3816:0.0039285732 3817:0.00047372081 3818:-0.0065629116 3819:0.0026632091 3820:0.0017975575 3821:-0.0038178082 3822:0.00017551622 3823:0.0068170994 3824:0.00010984802 3825:-7.8957315e-005 3826:0.0077098283 3827:0.0050238525 3828:0.0046300496 3829:-0.0011479223 3830:-0.0021424524 3831:-0.0047232198 3832:-0.0077596481 3833:-0.008513269 3834:-0.019690539 3835:-0.007906165 3836:0.0099848589 3837:-0.00040289649 3838:-0.0028961913 3839:-0.0037077346 3840:0.0045705903 3841:-0.0027851797 3842:0.0094262172 3843:0.00082385955 3844:-0.0011563719 3845:0.0056328345 3846:-0.0048680991 3847:0.015402595 3848:0.0058220606 3849:0.0022978225 3850:0.00334607 3851:-0.00027398884 3852:0.007425633 3853:0.0018803104 3854:0.0056910416 3855:-0.0014850348 3856:0.0014937901 3857:-0.00014172368 3858:0.00014877737 3859:-0.00036733199 3860:-0.009586546 3861:0.0044466967 3862:-0.0086728145 3863:-0.0045640896 3864:-0.0011351688 3865:0.003320828 3866:-0.0011534273 3867:0.0035693952 3868:-0.0036618012 3869:0.00087326766 3870:0.0025721228 3871:-0.0041166821 3872:-0.0032832107 3873:-0.0087940019 3874:0.00038066812 3875:-0.0044868832 3876:-0.0032773007 3877:0.008023224 3878:-0.012435522 3879:-0.0061772804 3880:-0.0086197684 3881:0.0015154278 3882:0.0086417101 3883:0.0031401085 3884:-0.0080829546 3885:0.0039623314 3886:0.0020676116 3887:0.0033505341 3888:-0.003053892 3889:-0.0028692262 3890:0.0095259099 3891:-0.0011301009 3892:0.0078488658 3893:0.0043694984 3894:-0.01082956 3895:0.0028801908 3896:-0.004424252 3897:-0.0013309201 3898:0.0090891678 3899:0.003890868 3900:-0.0072663133 3901:-0.008119165 3902:0.0038684368 3903:-0.0036783305 3904:0.0042135127 3905:-0.00094483813 3906:-0.0052874188 3907:-0.005522736 3908:0.0009294559 3909:0.00086844591 3910:0.0018832968 3911:6.206645e-005 3912:0.0041491404 3913:0.0064873458 3914:-0.0066318496 3915:0.00021988042 3916:-0.0016921347 3917:-0.0078750018 3918:-0.0026719019 3919:-0.012170902 3920:0.006312873 3921:-0.024664106 3922:0.0041597112 3923:-0.0012818369 3924:0.0091467733 3925:0.0018910558 3926:0.010920363 3927:0.0053366339 3928:-0.0048111796 3929:0.0034461801 3930:-0.0021475375 3931:0.0053030834 3932:0.0013295115 3933:-0.002693338 3934:-0.0045331495 3935:-0.0029530574 3936:-2.6621051e-005 3937:-0.012849696 3938:0.0040852277 3939:-0.0078761909 3940:-0.0052186323 3941:-0.0051178795 3942:0.0012893069 3943:0.0070821031 3944:0.0007085749 3945:0.0045355047 3946:0.00064642733 3947:0.0033392453 3948:-0.00099814335 3949:-0.0065861471 3950:-0.0024147591 3951:-0.0044965817 3952:-0.0013642272 3953:-0.00074254466 3954:0.0072256826 3955:0.011012329 3956:-0.0076966067 3957:0.00073273432 3958:-0.0058794778 3959:-0.00032249882 3960:0.0013687768 3961:0.0057391834 3962:-0.0017624722 3963:-0.0038505459 3964:-0.00084208385 3965:-0.0065055721 3966:-0.0013680108 3967:0.0053759282 3968:-5.9867657e-005 3969:-0.0042876644 3970:-0.0089063274 3971:0.00069875161 3972:-0.010259388 3973:0.0011147092 3974:-0.00020317306 3975:0.0047029046 3976:-0.005101826 3977:-0.0051342232 3978:0.0066972379 3979:0.0024246444 3980:0.010510682 3981:0.0051595148 3982:0.0035267391 3983:0.0020443546 3984:0.0050170649 3985:0.00072632872 3986:-0.011618102 3987:-0.0051915945 3988:0.0065895861 3989:-0.010967313 3990:9.1299048e-005 3991:0.0056199209 3992:-0.013809784 3993:-3.3897339e-005 3994:0.0049426978 3995:0.0023699987 3996:0.0028654497 3997:0.002370298 3998:0.009095493 3999:0.0054535028 4000:0.00068044492 4001:-0.001793949 4002:0.0050939185 4003:0.00192374 4004:0.0014143992 4005:-0.0014643478 4006:-0.02531885 4007:-0.012246624 4008:-0.0022708792 4009:0.0013916786 4010:-0.012487571 4011:0.0043847229 4012:0.0017016307 4013:0.00016179906 4014:0.0035145757 4015:0.0010531376 4016:-0.0018623256 4017:0.0065424141 4018:0.00165699 4019:-0.00041822385 4020:0.0033041805 4021:0.0001895941 4022:-0.001187393 4023:0.002043345 4024:0.00058708346 4025:0.0029724611 4026:0.006306238 4027:-0.00056567636 4028:-0.0024187819 4029:-0.0025917654 4030:-0.0067949345 4031:-0.0045370123 4032:-0.0075164135 4033:-0.0053163229 4034:-0.014364694 4035:-0.013616739 4036:-0.0059641455 4037:-0.01129499 4038:-0.0035156961 4039:-0.00062909673 4040:0.0024739758 4041:0.0019541933 4042:0.0025976985 4043:0.0058195738 4044:-0.0076449552 4045:-0.0017981663 4046:-0.0049405727 4047:0.0080535773 4048:0.0062935311 4049:7.96171e-005 4050:0.0070504338 4051:0.006139895 4052:0.004678813 4053:-0.00024903374 4054:0.00098731899 4055:-0.0032764489 4056:0.0079575056 4057:0.003097265 4058:-0.00083859885 4059:0.0020367096 4060:-0.006027624 4061:-0.0051259286 4062:-0.010062261 4063:-0.004902181 4064:-0.00011035494 4065:0.00034279932 4066:0.00099325409 4067:3.6299232e-005 4068:-0.0031875674 4069:0.0069695463 4070:0.0018992641 4071:-0.004921887 4072:-0.0014568699 4073:0.0011640499 4074:-0.0043479509 4075:-0.0052524215 4076:-0.011848649 4077:0.0081105354 4078:-0.013570634 4079:-0.0046120946 4080:-0.0036351905 4081:0.0060678561 4082:0.0070062535 4083:-0.0070462582 4084:-0.010849919 4085:0.0029677482 4086:0.0042007559 4087:0.0023258453 4088:-0.0034438712 4089:0.0023345289 4090:0.0047315112 4091:-0.00058797228 4092:8.3810866e-005 4093:0.0037939779 4094:-0.0076579599 4095:0.0053726745 4096:-0.003926129 4097:0.0012519688 4098:0.0024679349 4099:0.00076345343 4100:-0.0023600614 4101:-0.0026648992 4102:0.00086291695 4103:-0.00075909334 4104:-0.011662737 4105:0.0091950469 4106:0.0012929013 4107:0.0032205562 4108:-0.0049633273 4109:-0.0026143186 4110:0.0020180049 4111:0.0026054928 4112:-3.9569995e-005 4113:0.0044068219 4114:-0.0038961127 4115:-0.00034481954 4116:0.0022100638 4117:-0.017661311 4118:-0.0033377578 4119:-0.0057126456 4120:0.003784749 4121:-0.019666329 4122:0.0050167977 4123:0.0011388082 4124:-0.00058956234 4125:0.0072529753 4126:-0.002957407 4127:0.00037951668 4128:0.0054296229 4129:-0.00017182871 4130:-0.0033708717 4131:0.0032820649 4132:-0.0024468976 4133:0.0031920915 4134:0.003304621 4135:0.0074326224 4136:0.0048556288 4137:-0.019258978 4138:0.0016170436 4139:-0.0031426132 4140:-0.0020487745 4141:-0.0012765128 4142:0.00077129705 4143:-0.00030852437 4144:0.00025395178 4145:0.0059569508 4146:0.00010472436 4147:0.0036315129 4148:0.0023766551 4149:0.0026630898 4150:0.0029759839 4151:0.0040440015 4152:0.0051250782 4153:-0.0010940478 4154:0.0085363297 4155:0.008542003 4156:-0.0053690393 4157:-0.0030674965 4158:-0.0058797635 4159:0.00037385417 4160:-0.0030469833 4161:0.0099523598 4162:0.00042921941 4163:-0.013374344 4164:0.00047515686 4165:-0.014497165 4166:0.00079071327 4167:0.0019541874 4168:0.0039149661 4169:0.0029860553 4170:-0.01161346 4171:0.0053573168 4172:-0.0092537799 4173:-0.0016328101 4174:0.0076434002 4175:0.0060875114 4176:-0.0041107718 4177:-0.011501343 4178:-0.00090011826 4179:0.0036234949 4180:0.0050269305 4181:0.0022841955 4182:7.5670696e-005 4183:0.0035158946 4184:0.0014454961 4185:0.00076804155 4186:-0.0099748074 4187:0.0067463278 4188:-0.00020660176 4189:-0.012204901 4190:0.0045994562 4191:0.0059811541 4192:-0.015225748 4193:-0.0021541394 4194:0.00079856714 4195:0.0088566482 4196:0.0026371307 4197:0.00054601154 4198:0.0028648038 4199:0.0070056624 4200:-0.0011497074 
